{"learner":{"attributes":{},"feature_names":["recency_days","frequency","monetary"],"feature_types":["float","float","float"],"gradient_booster":{"model":{"cats":{"enc":[],"feature_segments":[],"sorted_idx":[]},"gbtree_model_param":{"num_parallel_tree":"1","num_trees":"900"},"iteration_indptr":[0,3,6,9,12,15,18,21,24,27,30,33,36,39,42,45,48,51,54,57,60,63,66,69,72,75,78,81,84,87,90,93,96,99,102,105,108,111,114,117,120,123,126,129,132,135,138,141,144,147,150,153,156,159,162,165,168,171,174,177,180,183,186,189,192,195,198,201,204,207,210,213,216,219,222,225,228,231,234,237,240,243,246,249,252,255,258,261,264,267,270,273,276,279,282,285,288,291,294,297,300,303,306,309,312,315,318,321,324,327,330,333,336,339,342,345,348,351,354,357,360,363,366,369,372,375,378,381,384,387,390,393,396,399,402,405,408,411,414,417,420,423,426,429,432,435,438,441,444,447,450,453,456,459,462,465,468,471,474,477,480,483,486,489,492,495,498,501,504,507,510,513,516,519,522,525,528,531,534,537,540,543,546,549,552,555,558,561,564,567,570,573,576,579,582,585,588,591,594,597,600,603,606,609,612,615,618,621,624,627,630,633,636,639,642,645,648,651,654,657,660,663,666,669,672,675,678,681,684,687,690,693,696,699,702,705,708,711,714,717,720,723,726,729,732,735,738,741,744,747,750,753,756,759,762,765,768,771,774,777,780,783,786,789,792,795,798,801,804,807,810,813,816,819,822,825,828,831,834,837,840,843,846,849,852,855,858,861,864,867,870,873,876,879,882,885,888,891,894,897,900],"tree_info":[0,1,2,0,1,2,0,1,2,0,1,2,0,1,2,0,1,2,0,1,2,0,1,2,0,1,2,0,1,2,0,1,2,0,1,2,0,1,2,0,1,2,0,1,2,0,1,2,0,1,2,0,1,2,0,1,2,0,1,2,0,1,2,0,1,2,0,1,2,0,1,2,0,1,2,0,1,2,0,1,2,0,1,2,0,1,2,0,1,2,0,1,2,0,1,2,0,1,2,0,1,2,0,1,2,0,1,2,0,1,2,0,1,2,0,1,2,0,1,2,0,1,2,0,1,2,0,1,2,0,1,2,0,1,2,0,1,2,0,1,2,0,1,2,0,1,2,0,1,2,0,1,2,0,1,2,0,1,2,0,1,2,0,1,2,0,1,2,0,1,2,0,1,2,0,1,2,0,1,2,0,1,2,0,1,2,0,1,2,0,1,2,0,1,2,0,1,2,0,1,2,0,1,2,0,1,2,0,1,2,0,1,2,0,1,2,0,1,2,0,1,2,0,1,2,0,1,2,0,1,2,0,1,2,0,1,2,0,1,2,0,1,2,0,1,2,0,1,2,0,1,2,0,1,2,0,1,2,0,1,2,0,1,2,0,1,2,0,1,2,0,1,2,0,1,2,0,1,2,0,1,2,0,1,2,0,1,2,0,1,2,0,1,2,0,1,2,0,1,2,0,1,2,0,1,2,0,1,2,0,1,2,0,1,2,0,1,2,0,1,2,0,1,2,0,1,2,0,1,2,0,1,2,0,1,2,0,1,2,0,1,2,0,1,2,0,1,2,0,1,2,0,1,2,0,1,2,0,1,2,0,1,2,0,1,2,0,1,2,0,1,2,0,1,2,0,1,2,0,1,2,0,1,2,0,1,2,0,1,2,0,1,2,0,1,2,0,1,2,0,1,2,0,1,2,0,1,2,0,1,2,0,1,2,0,1,2,0,1,2,0,1,2,0,1,2,0,1,2,0,1,2,0,1,2,0,1,2,0,1,2,0,1,2,0,1,2,0,1,2,0,1,2,0,1,2,0,1,2,0,1,2,0,1,2,0,1,2,0,1,2,0,1,2,0,1,2,0,1,2,0,1,2,0,1,2,0,1,2,0,1,2,0,1,2,0,1,2,0,1,2,0,1,2,0,1,2,0,1,2,0,1,2,0,1,2,0,1,2,0,1,2,0,1,2,0,1,2,0,1,2,0,1,2,0,1,2,0,1,2,0,1,2,0,1,2,0,1,2,0,1,2,0,1,2,0,1,2,0,1,2,0,1,2,0,1,2,0,1,2,0,1,2,0,1,2,0,1,2,0,1,2,0,1,2,0,1,2,0,1,2,0,1,2,0,1,2,0,1,2,0,1,2,0,1,2,0,1,2,0,1,2,0,1,2,0,1,2,0,1,2,0,1,2,0,1,2,0,1,2,0,1,2,0,1,2,0,1,2,0,1,2,0,1,2,0,1,2,0,1,2,0,1,2,0,1,2,0,1,2,0,1,2,0,1,2,0,1,2,0,1,2,0,1,2,0,1,2,0,1,2,0,1,2,0,1,2,0,1,2,0,1,2,0,1,2,0,1,2,0,1,2,0,1,2,0,1,2,0,1,2,0,1,2,0,1,2,0,1,2,0,1,2,0,1,2,0,1,2,0,1,2,0,1,2,0,1,2,0,1,2,0,1,2,0,1,2,0,1,2,0,1,2,0,1,2,0,1,2,0,1,2,0,1,2,0,1,2,0,1,2,0,1,2,0,1,2,0,1,2,0,1,2,0,1,2,0,1,2,0,1,2,0,1,2,0,1,2,0,1,2,0,1,2,0,1,2,0,1,2,0,1,2,0,1,2,0,1,2,0,1,2,0,1,2,0,1,2,0,1,2,0,1,2,0,1,2,0,1,2,0,1,2,0,1,2,0,1,2,0,1,2,0,1,2,0,1,2,0,1,2,0,1,2,0,1,2,0,1,2,0,1,2,0,1,2,0,1,2,0,1,2,0,1,2,0,1,2,0,1,2,0,1,2,0,1,2,0,1,2],"trees":[{"base_weights":[8.406791E-3,8.1352375E-2,-1.2366846E-1,-3.4101188E-1,3.843948E-1,-2.326251E-2,-7.821801E-2,4.3129783E-2,-8.565741E-2],"categories":[],"categories_nodes":[],"categories_segments":[],"categories_sizes":[],"default_left":[0,0,0,0,0,0,0,0,0],"id":0,"left_children":[1,-1,3,5,7,-1,-1,-1,-1],"loss_changes":[1.09856705E2,0E0,9.8140495E1,2.9568283E1,1.5875351E1,0E0,0E0,0E0,0E0],"parents":[2147483647,0,0,2,2,3,3,4,4],"right_children":[2,-1,4,6,8,-1,-1,-1,-1],"split_conditions":[-4E-1,8.1352375E-2,6E-1,8.666667E-1,8.008775E-1,-2.326251E-2,-7.821801E-2,4.3129783E-2,-8.565741E-2],"split_indices":[1,0,1,0,0,0,0,0,0],"split_type":[0,0,0,0,0,0,0,0,0],"sum_hessian":[1.0311628E3,1.4459111E2,8.865718E2,6.21171E2,2.654008E2,4.998857E2,1.212853E2,2.5636383E2,9.036944E0],"tree_param":{"num_deleted":"0","num_feature":"3","num_nodes":"9","size_leaf_vector":"1"}},{"base_weights":[-2.238771E-3,-3.7921315E-1,5.6375694E-1,-1.6772974E-1,-5.602648E-1,-6.658198E-2,8.92941E-1,-6.6209204E-2,-2.796361E-3,-4.5003377E-2,-6.2340945E-2,5.936716E-2,1.2790972E-1],"categories":[],"categories_nodes":[],"categories_segments":[],"categories_sizes":[],"default_left":[0,0,0,0,0,0,0,0,0,0,0,0,0],"id":1,"left_children":[1,3,5,7,9,-1,11,-1,-1,-1,-1,-1,-1],"loss_changes":[1.7601416E2,1.8864944E1,1.3407968E2,1.5860069E1,1.5733109E0,0E0,2.9353561E1,0E0,0E0,0E0,0E0,0E0,0E0],"parents":[2147483647,0,0,1,1,2,2,3,3,4,4,6,6],"right_children":[2,4,6,8,10,-1,12,-1,-1,-1,-1,-1,-1],"split_conditions":[2.1212122E-1,1.9772927E-1,-4E-1,-4E-1,6.4404744E-1,-6.658198E-2,8.008775E-1,-6.6209204E-2,-2.796361E-3,-4.5003377E-2,-6.2340945E-2,5.936716E-2,1.2790972E-1],"split_indices":[0,1,1,1,1,0,0,0,0,0,0,0,0],"split_type":[0,0,0,0,0,0,0,0,0,0,0,0,0],"sum_hessian":[8.2293854E2,4.9414767E2,3.2879086E2,2.2880768E2,2.6534E2,6.921913E1,2.5957175E2,4.9607044E1,1.7920064E2,9.959863E1,1.6574136E2,1.4766748E2,1.1190426E2],"tree_param":{"num_deleted":"0","num_feature":"3","num_nodes":"13","size_leaf_vector":"1"}},{"base_weights":[3.0082975E-2,4.6605065E-1,-5.6690687E-1,-3.90002E-1,6.8389064E-1,-1.22939326E-1,-5.7177514E-2,-5.600508E-2,-1.3778484E-3,9.954215E-2,-4.7889136E-2,-3.3073317E-2,1.6461931E-2],"categories":[],"categories_nodes":[],"categories_segments":[],"categories_sizes":[],"default_left":[0,0,0,0,0,0,0,0,0,0,0,0,0],"id":2,"left_children":[1,3,5,7,9,11,-1,-1,-1,-1,-1,-1,-1],"loss_changes":[1.2575841E2,5.2335743E1,3.7052155E-1,3.6566029E0,8.12352E1,2.6274937E-1,0E0,0E0,0E0,0E0,0E0,0E0,0E0],"parents":[2147483647,0,0,1,1,2,2,3,3,4,4,5,5],"right_children":[2,4,6,8,10,12,-1,-1,-1,-1,-1,-1,-1],"split_conditions":[9.6969694E-2,-3.9517042E-1,1.21212125E-1,-2.5730363E-1,1.4E0,-1.6842379E-1,-5.7177514E-2,-5.600508E-2,-1.3778484E-3,9.954215E-2,-4.7889136E-2,-3.3073317E-2,1.6461931E-2],"split_indices":[0,1,0,2,1,1,0,0,0,0,0,0,0],"split_type":[0,0,0,0,0,0,0,0,0,0,0,0,0],"sum_hessian":[4.8117242E2,2.7821664E2,2.0295576E2,5.6276154E1,2.2194049E2,2.4860952E0,2.0046968E2,3.842147E1,1.7854683E1,1.7515671E2,4.678379E1,1.3560519E0,1.1300433E0],"tree_param":{"num_deleted":"0","num_feature":"3","num_nodes":"13","size_leaf_vector":"1"}},{"base_weights":[-2.536301E-4,7.711812E-2,-1.24519035E-1,-3.2014573E-1,3.5757226E-1,-2.330122E-2,-6.571183E-2,6.2229343E-2,1.8349765E-2],"categories":[],"categories_nodes":[],"categories_segments":[],"categories_sizes":[],"default_left":[0,0,0,0,0,0,0,0,0],"id":3,"left_children":[1,-1,3,5,7,-1,-1,-1,-1],"loss_changes":[1.0050463E2,0E0,8.5273315E1,1.872197E1,1.191848E1,0E0,0E0,0E0,0E0],"parents":[2147483647,0,0,2,2,3,3,4,4],"right_children":[2,-1,4,6,8,-1,-1,-1,-1],"split_conditions":[-4E-1,7.711812E-2,6E-1,8.666667E-1,-3.3241042E-1,-2.330122E-2,-6.571183E-2,6.2229343E-2,1.8349765E-2],"split_indices":[1,0,1,0,0,0,0,0,0],"split_type":[0,0,0,0,0,0,0,0,0],"sum_hessian":[1.0464214E3,1.4445352E2,9.0196783E2,6.4184924E2,2.601186E2,5.113239E2,1.3052536E2,1.02170135E2,1.5794844E2],"tree_param":{"num_deleted":"0","num_feature":"3","num_nodes":"9","size_leaf_vector":"1"}},{"base_weights":[-1.0629121E-2,-3.7359673E-1,5.195633E-1,-1.4958341E-1,-4.8670363E-1,-6.440179E-2,7.6866204E-1,-6.416043E-2,5.8378377E-3,-3.7827503E-2,-5.7666756E-2,5.6217015E-2,1.08882025E-1],"categories":[],"categories_nodes":[],"categories_segments":[],"categories_sizes":[],"default_left":[0,0,0,0,0,0,0,0,0,0,0,0,0],"id":4,"left_children":[1,3,5,7,9,-1,11,-1,-1,-1,-1,-1,-1],"loss_changes":[1.61218E2,1.2527016E1,9.91751E1,1.7256721E1,3.0008469E0,0E0,1.7956848E1,0E0,0E0,0E0,0E0,0E0,0E0],"parents":[2147483647,0,0,1,1,2,2,3,3,4,4,6,6],"right_children":[2,4,6,8,10,-1,12,-1,-1,-1,-1,-1,-1],"split_conditions":[2.1212122E-1,-4.7527507E-2,-4E-1,-4E-1,6E-1,-6.440179E-2,8.666667E-1,-6.416043E-2,5.8378377E-3,-3.7827503E-2,-5.7666756E-2,5.6217015E-2,1.08882025E-1],"split_indices":[0,1,1,1,1,0,0,0,0,0,0,0,0],"split_type":[0,0,0,0,0,0,0,0,0,0,0,0,0],"sum_hessian":[8.357368E2,4.9628055E2,3.394563E2,1.6728586E2,3.289947E2,5.957698E1,2.7987933E2,4.908039E1,1.1820546E2,1.5154749E2,1.774472E2,1.7181805E2,1.0806127E2],"tree_param":{"num_deleted":"0","num_feature":"3","num_nodes":"13","size_leaf_vector":"1"}},{"base_weights":[9.734096E-3,4.065013E-1,-5.6224275E-1,-3.6523354E-1,5.874164E-1,-1.4747089E-1,-5.670742E-2,-5.543099E-2,3.208055E-3,8.415648E-2,-4.1489642E-2,-3.487852E-2,1.6248925E-2],"categories":[],"categories_nodes":[],"categories_segments":[],"categories_sizes":[],"default_left":[0,0,0,0,0,0,0,0,0,0,0,0,0],"id":5,"left_children":[1,3,5,7,9,11,-1,-1,-1,-1,-1,-1,-1],"loss_changes":[1.1256825E2,4.110228E1,3.2349396E-1,4.24205E0,6.0880005E1,2.869723E-1,0E0,0E0,0E0,0E0,0E0,0E0,0E0],"parents":[2147483647,0,0,1,1,2,2,3,3,4,4,5,5],"right_children":[2,4,6,8,10,12,-1,-1,-1,-1,-1,-1,-1],"split_conditions":[9.6969694E-2,-3.9517042E-1,1.21212125E-1,-2.5966176E-1,1.4E0,-1.4305077E-1,-5.670742E-2,-5.543099E-2,3.208055E-3,8.415648E-2,-4.1489642E-2,-3.487852E-2,1.6248925E-2],"split_indices":[0,1,0,2,1,2,0,0,0,0,0,0,0],"split_type":[0,0,0,0,0,0,0,0,0,0,0,0,0],"sum_hessian":[4.9401578E2,2.9185324E2,2.0216257E2,5.5231564E1,2.3662166E2,2.690716E0,1.9947185E2,3.7154907E1,1.8076656E1,1.8888737E2,4.773428E1,1.555309E0,1.1354071E0],"tree_param":{"num_deleted":"0","num_feature":"3","num_nodes":"13","size_leaf_vector":"1"}},{"base_weights":[-6.887722E-3,7.3522456E-2,-1.16276905E-1,-2.9452944E-1,3.4280866E-1,-1.0326592E-4,-3.6216974E-2,3.8278997E-2,-7.886131E-2],"categories":[],"categories_nodes":[],"categories_segments":[],"categories_sizes":[],"default_left":[0,0,0,0,0,0,0,0,0],"id":6,"left_children":[1,-1,3,5,7,-1,-1,-1,-1],"loss_changes":[8.326209E1,0E0,7.324695E1,1.279216E1,1.1631371E1,0E0,0E0,0E0,0E0],"parents":[2147483647,0,0,2,2,3,3,4,4],"right_children":[2,-1,4,6,8,-1,-1,-1,-1],"split_conditions":[-4E-1,7.3522456E-2,6E-1,-2.808381E-1,8.008775E-1,-1.0326592E-4,-3.6216974E-2,3.8278997E-2,-7.886131E-2],"split_indices":[1,0,1,0,0,0,0,0,0],"split_type":[0,0,0,0,0,0,0,0,0],"sum_hessian":[1.02360675E3,1.3076393E2,8.9284283E2,6.4338824E2,2.4945462E2,1.20695595E2,5.226926E2,2.4157954E2,7.8750796E0],"tree_param":{"num_deleted":"0","num_feature":"3","num_nodes":"9","size_leaf_vector":"1"}},{"base_weights":[-1.8489812E-2,-3.3732015E-1,4.7122303E-1,-8.656319E-2,-4.6553546E-1,-6.255754E-2,6.873326E-1,-6.2417336E-2,1.3009103E-2,-3.3710863E-2,-5.804981E-2,5.02931E-2,9.511231E-2],"categories":[],"categories_nodes":[],"categories_segments":[],"categories_sizes":[],"default_left":[0,0,0,0,0,0,0,0,0,0,0,0,0],"id":7,"left_children":[1,3,5,7,9,-1,11,-1,-1,-1,-1,-1,-1],"loss_changes":[1.3194266E2,1.6414276E1,7.9418106E1,2.0392183E1,4.800728E0,0E0,1.3086655E1,0E0,0E0,0E0,0E0,0E0,0E0],"parents":[2147483647,0,0,1,1,2,2,3,3,4,4,6,6],"right_children":[2,4,6,8,10,-1,12,-1,-1,-1,-1,-1,-1],"split_conditions":[3.030303E-1,-1.6842379E-1,-4E-1,-4E-1,4.4138288E-1,-6.255754E-2,8.969697E-1,-6.2417336E-2,1.3009103E-2,-3.3710863E-2,-5.804981E-2,5.02931E-2,9.511231E-2],"split_indices":[0,1,1,1,1,0,0,0,0,0,0,0,0],"split_type":[0,0,0,0,0,0,0,0,0,0,0,0,0],"sum_hessian":[8.430353E2,5.1079224E2,3.32243E2,1.7337987E2,3.3741235E2,5.4376564E1,2.7786646E2,4.9261192E1,1.2411868E2,1.6123083E2,1.7618152E2,1.6525337E2,1.1261308E2],"tree_param":{"num_deleted":"0","num_feature":"3","num_nodes":"13","size_leaf_vector":"1"}},{"base_weights":[4.817609E-3,3.6947685E-1,-5.5250037E-1,-1.379674E-3,7.2073984E-1,-1.6458815E-1,-5.6239855E-2,1.8719818E-2,-4.6301298E-2,-2.9196782E-2,9.734802E-2,-3.986307E-2,7.023722E-3],"categories":[],"categories_nodes":[],"categories_segments":[],"categories_sizes":[],"default_left":[0,0,0,0,0,0,0,0,0,0,0,0,0],"id":8,"left_children":[1,3,5,7,9,11,-1,-1,-1,-1,-1,-1,-1],"loss_changes":[9.8965195E1,3.834537E1,6.46965E-1,1.2638052E1,3.8976494E1,3.69078E-1,0E0,0E0,0E0,0E0,0E0,0E0,0E0],"parents":[2147483647,0,0,1,1,2,2,3,3,4,4,5,5],"right_children":[2,4,6,8,10,12,-1,-1,-1,-1,-1,-1,-1],"split_conditions":[9.090909E-2,-2.808381E-1,1.21212125E-1,1.369789E0,-3.7754083E-1,-1.1881264E-1,-5.6239855E-2,1.8719818E-2,-4.6301298E-2,-2.9196782E-2,9.734802E-2,-3.986307E-2,7.023722E-3],"split_indices":[0,0,0,2,1,2,0,0,0,0,0,0,0],"split_type":[0,0,0,0,0,0,0,0,0,0,0,0,0],"sum_hessian":[4.849543E2,2.9334955E2,1.9160477E2,1.4317952E2,1.5017003E2,5.206054E0,1.8639871E2,1.0207587E2,4.110365E1,2.9961555E1,1.2020847E2,2.25801E0,2.9480443E0],"tree_param":{"num_deleted":"0","num_feature":"3","num_nodes":"13","size_leaf_vector":"1"}},{"base_weights":[-2.9698372E-4,7.0678145E-2,-1.024255E-1,-2.6400292E-1,3.2698327E-1,-1.8479811E-2,-5.7950597E-2,3.6905065E-2,-7.3943466E-2],"categories":[],"categories_nodes":[],"categories_segments":[],"categories_sizes":[],"default_left":[0,0,0,0,0,0,0,0,0],"id":9,"left_children":[1,-1,3,5,7,-1,-1,-1,-1],"loss_changes":[7.263905E1,0E0,6.1070038E1,1.5865936E1,1.107342E1,0E0,0E0,0E0,0E0],"parents":[2147483647,0,0,2,2,3,3,4,4],"right_children":[2,-1,4,6,8,-1,-1,-1,-1],"split_conditions":[-4E-1,7.0678145E-2,6E-1,8.666667E-1,7.878788E-1,-1.8479811E-2,-5.7950597E-2,3.6905065E-2,-7.3943466E-2],"split_indices":[1,0,1,0,0,0,0,0,0],"split_type":[0,0,0,0,0,0,0,0,0],"sum_hessian":[1.00389935E3,1.2595307E2,8.779462E2,6.38193E2,2.3975328E2,5.113963E2,1.26796684E2,2.3128368E2,8.469599E0],"tree_param":{"num_deleted":"0","num_feature":"3","num_nodes":"9","size_leaf_vector":"1"}},{"base_weights":[1.2247242E-2,-3.0936298E-1,4.2483753E-1,-5.3571433E-2,-4.5221326E-1,-6.1056156E-2,6.1460394E-1,-6.0624E-2,1.3778827E-2,-3.4427762E-2,-5.4451186E-2,5.155301E-2,9.2302606E-2],"categories":[],"categories_nodes":[],"categories_segments":[],"categories_sizes":[],"default_left":[0,0,0,0,0,0,0,0,0,0,0,0,0],"id":10,"left_children":[1,3,5,7,9,-1,11,-1,-1,-1,-1,-1,-1],"loss_changes":[1.0813013E2,1.6709408E1,7.050865E1,1.7558979E1,2.7386322E0,0E0,8.756935E0,0E0,0E0,0E0,0E0,0E0,0E0],"parents":[2147483647,0,0,1,1,2,2,3,3,4,4,6,6],"right_children":[2,4,6,8,10,-1,12,-1,-1,-1,-1,-1,-1],"split_conditions":[2.1212122E-1,-4.7527507E-2,-4E-1,-4E-1,6E-1,-6.1056156E-2,1.1454545E0,-6.0624E-2,1.3778827E-2,-3.4427762E-2,-5.4451186E-2,5.155301E-2,9.2302606E-2],"split_indices":[0,1,1,1,1,0,0,0,0,0,0,0,0],"split_type":[0,0,0,0,0,0,0,0,0,0,0,0,0],"sum_hessian":[8.1289746E2,4.5695532E2,3.5594214E2,1.6423921E2,2.9271613E2,5.4788574E1,3.0115356E2,4.168375E1,1.2255546E2,1.3710872E2,1.5560739E2,2.2995656E2,7.1197E1],"tree_param":{"num_deleted":"0","num_feature":"3","num_nodes":"13","size_leaf_vector":"1"}},{"base_weights":[-2.2318785E-3,3.176849E-1,-5.5881917E-2,-3.6346924E-1,4.6662608E-1,-5.4701503E-2,-5.323212E-3,6.7322746E-2,-3.9547026E-2],"categories":[],"categories_nodes":[],"categories_segments":[],"categories_sizes":[],"default_left":[0,0,0,0,0,0,0,0,0],"id":11,"left_children":[1,3,-1,5,7,-1,-1,-1,-1],"loss_changes":[8.777715E1,3.192788E1,0E0,3.2012086E0,4.6095493E1,0E0,0E0,0E0,0E0],"parents":[2147483647,0,0,1,1,3,3,4,4],"right_children":[2,4,-1,6,8,-1,-1,-1,-1],"split_conditions":[9.090909E-2,-3.9517042E-1,-5.5881917E-2,-2.5966176E-1,1.4E0,-5.4701503E-2,-5.323212E-3,6.7322746E-2,-3.9547026E-2],"split_indices":[0,1,0,2,1,0,0,0,0],"split_type":[0,0,0,0,0,0,0,0,0],"sum_hessian":[4.9096243E2,3.1203775E2,1.7892468E2,5.572943E1,2.5630832E2,3.4534534E1,2.1194899E1,2.0693535E2,4.9372967E1],"tree_param":{"num_deleted":"0","num_feature":"3","num_nodes":"9","size_leaf_vector":"1"}},{"base_weights":[4.1198716E-3,6.814086E-2,-9.152043E-2,-1.7870954E-1,5.335985E-1,-1.1037626E-2,-5.7635304E-2,6.5316945E-2,-4.008096E-2],"categories":[],"categories_nodes":[],"categories_segments":[],"categories_sizes":[],"default_left":[0,0,0,0,0,0,0,0,0],"id":12,"left_children":[1,-1,3,5,7,-1,-1,-1,-1],"loss_changes":[6.5823524E1,0E0,4.8629124E1,2.1191141E1,1.2467825E1,0E0,0E0,0E0,0E0],"parents":[2147483647,0,0,2,2,3,3,4,4],"right_children":[2,-1,4,6,8,-1,-1,-1,-1],"split_conditions":[-4E-1,6.814086E-2,1.4E0,9.0666795E-1,6.060606E-3,-1.1037626E-2,-5.7635304E-2,6.5316945E-2,-4.008096E-2],"split_indices":[1,0,1,0,0,0,0,0,0],"split_type":[0,0,0,0,0,0,0,0,0],"sum_hessian":[1.0142072E3,1.247376E2,8.894696E2,7.81222E2,1.0824763E2,6.6774976E2,1.1347227E2,9.623407E1,1.2013556E1],"tree_param":{"num_deleted":"0","num_feature":"3","num_nodes":"9","size_leaf_vector":"1"}},{"base_weights":[3.3606644E-4,-3.224245E-1,4.0333173E-1,-4.221558E-2,-4.6752447E-1,-5.9701692E-2,5.7658195E-1,-5.912858E-2,1.30762225E-2,-2.7899195E-2,-5.0984588E-2,7.118246E-2,3.4437303E-2],"categories":[],"categories_nodes":[],"categories_segments":[],"categories_sizes":[],"default_left":[0,0,0,0,0,0,0,0,0,0,0,0,0],"id":13,"left_children":[1,3,5,7,9,-1,11,-1,-1,-1,-1,-1,-1],"loss_changes":[1.0595651E2,1.83713E1,6.3129997E1,1.4838482E1,2.234787E0,0E0,9.468353E0,0E0,0E0,0E0,0E0,0E0,0E0],"parents":[2147483647,0,0,1,1,2,2,3,3,4,4,6,6],"right_children":[2,4,6,8,10,-1,12,-1,-1,-1,-1,-1,-1],"split_conditions":[2.1212122E-1,-1.0626787E-1,-4E-1,-4E-1,1.1230894E-1,-5.9701692E-2,-1.4113749E-2,-5.912858E-2,1.30762225E-2,-2.7899195E-2,-5.0984588E-2,7.118246E-2,3.4437303E-2],"split_indices":[0,1,1,1,1,0,1,0,0,0,0,0,0],"split_type":[0,0,0,0,0,0,0,0,0,0,0,0,0],"sum_hessian":[8.126047E2,4.513316E2,3.6127307E2,1.544184E2,2.969132E2,5.2971138E1,3.0830194E2,3.6413986E1,1.180044E2,5.582355E1,2.4108966E2,1.9352438E2,1.1477755E2],"tree_param":{"num_deleted":"0","num_feature":"3","num_nodes":"13","size_leaf_vector":"1"}},{"base_weights":[-9.269645E-3,2.8338748E-1,-5.433478E-1,-4.141566E-1,4.1513377E-1,-1.9993924E-1,-5.5427648E-2,-5.4125514E-2,-1.8210147E-2,5.9679132E-2,-3.636053E-2,-4.3038473E-2,9.571451E-3],"categories":[],"categories_nodes":[],"categories_segments":[],"categories_sizes":[],"default_left":[0,0,0,0,0,0,0,0,0,0,0,0,0],"id":14,"left_children":[1,3,5,7,9,11,-1,-1,-1,-1,-1,-1,-1],"loss_changes":[7.5725746E1,2.8936436E1,5.328026E-1,1.3827963E0,3.753173E1,5.081494E-1,0E0,0E0,0E0,0E0,0E0,0E0,0E0],"parents":[2147483647,0,0,1,1,2,2,3,3,4,4,5,5],"right_children":[2,4,6,8,10,12,-1,-1,-1,-1,-1,-1,-1],"split_conditions":[9.090909E-2,-3.9517042E-1,1.21212125E-1,-2.5730363E-1,1.4240966E0,2.3185337E-1,-5.5427648E-2,-5.4125514E-2,-1.8210147E-2,5.9679132E-2,-3.636053E-2,-4.3038473E-2,9.571451E-3],"split_indices":[0,1,0,2,2,2,0,0,0,0,0,0,0],"split_type":[0,0,0,0,0,0,0,0,0,0,0,0,0],"sum_hessian":[4.8249908E2,3.1200183E2,1.7049727E2,4.9226032E1,2.627758E2,5.853678E0,1.646436E2,3.0944845E1,1.8281185E1,2.132616E2,4.9514187E1,3.033517E0,2.8201616E0],"tree_param":{"num_deleted":"0","num_feature":"3","num_nodes":"13","size_leaf_vector":"1"}},{"base_weights":[1.1048839E-2,6.592258E-2,-7.267379E-2,-2.6807654E-1,1.725499E-1,-2.0526243E-2,-4.4648513E-2,4.97158E-2,-3.9107664E-3],"categories":[],"categories_nodes":[],"categories_segments":[],"categories_sizes":[],"default_left":[0,0,0,0,0,0,0,0,0],"id":15,"left_children":[1,-1,3,5,7,-1,-1,-1,-1],"loss_changes":[5.3923008E1,0E0,4.221896E1,5.4018707E0,2.687709E1,0E0,0E0,0E0,0E0],"parents":[2147483647,0,0,2,2,3,3,4,4],"right_children":[2,-1,4,6,8,-1,-1,-1,-1],"split_conditions":[-4E-1,6.592258E-2,1.6414993E-1,7.3939395E-1,-2.808381E-1,-2.0526243E-2,-4.4648513E-2,4.97158E-2,-3.9107664E-3],"split_indices":[1,0,2,0,0,0,0,0,0],"split_type":[0,0,0,0,0,0,0,0,0],"sum_hessian":[9.917768E2,1.12663895E2,8.791129E2,4.892046E2,3.8990836E2,3.6340686E2,1.25797714E2,1.5335974E2,2.3654861E2],"tree_param":{"num_deleted":"0","num_feature":"3","num_nodes":"9","size_leaf_vector":"1"}},{"base_weights":[-3.7033493E-3,-2.853373E-1,3.7406987E-1,-1.0345102E-1,-4.7242188E-1,-5.8342904E-2,5.2418035E-1,-5.8085114E-2,-3.3606903E-4,-3.1062052E-2,-5.1415574E-2,4.3719567E-2,8.922277E-2],"categories":[],"categories_nodes":[],"categories_segments":[],"categories_sizes":[],"default_left":[0,0,0,0,0,0,0,0,0,0,0,0,0],"id":16,"left_children":[1,3,5,7,9,-1,11,-1,-1,-1,-1,-1,-1],"loss_changes":[8.27457E1,1.5112461E1,4.8049446E1,1.0854164E1,1.3215218E0,0E0,8.819931E0,0E0,0E0,0E0,0E0,0E0,0E0],"parents":[2147483647,0,0,1,1,2,2,3,3,4,4,6,6],"right_children":[2,4,6,8,10,-1,12,-1,-1,-1,-1,-1,-1],"split_conditions":[3.030303E-1,1.9772927E-1,-4E-1,-4E-1,1.7469712E-1,-5.8342904E-2,1.3636364E0,-5.8085114E-2,-3.3606903E-4,-3.1062052E-2,-5.1415574E-2,4.3719567E-2,8.922277E-2],"split_indices":[0,1,1,1,2,0,0,0,0,0,0,0,0],"split_type":[0,0,0,0,0,0,0,0,0,0,0,0,0],"sum_hessian":[7.757275E2,4.445531E2,3.3117435E2,2.2619557E2,2.1835753E2,4.449169E1,2.8668265E2,3.8371593E1,1.8782397E2,4.6504276E1,1.7185326E2,2.3364957E2,5.3033092E1],"tree_param":{"num_deleted":"0","num_feature":"3","num_nodes":"13","size_leaf_vector":"1"}},{"base_weights":[-1.2310444E-2,2.670996E-1,-5.5041354E-2,3.8753754E-1,-4.1080165E-1,-3.5350367E-2,5.4118317E-2,-4.672727E-2,4.1288707E-2],"categories":[],"categories_nodes":[],"categories_segments":[],"categories_sizes":[],"default_left":[0,0,0,0,0,0,0,0,0],"id":17,"left_children":[1,3,-1,5,7,-1,-1,-1,-1],"loss_changes":[7.1058586E1,2.5560202E1,0E0,3.0328861E1,2.398672E0,0E0,0E0,0E0,0E0],"parents":[2147483647,0,0,1,1,3,3,4,4],"right_children":[2,4,-1,6,8,-1,-1,-1,-1],"split_conditions":[1.21212125E-1,1.4240966E0,-5.5041354E-2,-3.9517042E-1,6.060606E-3,-3.5350367E-2,5.4118317E-2,-4.672727E-2,4.1288707E-2],"split_indices":[0,2,0,1,0,0,0,0,0],"split_type":[0,0,0,0,0,0,0,0,0],"sum_hessian":[4.7063882E2,3.1011514E2,1.6052367E2,2.636947E2,4.642045E1,4.506123E1,2.1863347E2,4.3847057E1,2.5733922E0],"tree_param":{"num_deleted":"0","num_feature":"3","num_nodes":"9","size_leaf_vector":"1"}},{"base_weights":[2.9520081E-2,6.399199E-2,-4.2416792E-2,2.8434882E-1,-1.7769672E-1,-6.9942586E-3,4.467852E-2,-1.2248842E-2,-6.338494E-2],"categories":[],"categories_nodes":[],"categories_segments":[],"categories_sizes":[],"default_left":[0,0,0,0,0,0,0,0,0],"id":18,"left_children":[1,-1,3,5,7,-1,-1,-1,-1],"loss_changes":[4.3261967E1,0E0,3.902814E1,1.4910618E1,1.5641911E1,0E0,0E0,0E0,0E0],"parents":[2147483647,0,0,2,2,3,3,4,4],"right_children":[2,-1,4,6,8,-1,-1,-1,-1],"split_conditions":[-4E-1,6.399199E-2,-2.808381E-1,4.6834927E-2,1.1878788E0,-6.9942586E-3,4.467852E-2,-1.2248842E-2,-6.338494E-2],"split_indices":[1,0,0,2,0,0,0,0,0],"split_type":[0,0,0,0,0,0,0,0,0],"sum_hessian":[9.8361786E2,1.028677E2,8.807501E2,2.5754764E2,6.232025E2,8.11406E1,1.7640704E2,5.5705096E2,6.615153E1],"tree_param":{"num_deleted":"0","num_feature":"3","num_nodes":"9","size_leaf_vector":"1"}},{"base_weights":[-9.163426E-3,-2.8141814E-1,3.1622285E-1,-1.01131804E-1,-4.5959046E-1,-5.7296794E-2,4.4043162E-1,-5.6951474E-2,-4.5493498E-4,-1.8058581E-2,-5.0246757E-2,3.1014008E-2,6.569325E-2],"categories":[],"categories_nodes":[],"categories_segments":[],"categories_sizes":[],"default_left":[0,0,0,0,0,0,0,0,0,0,0,0,0],"id":19,"left_children":[1,3,5,7,9,-1,11,-1,-1,-1,-1,-1,-1],"loss_changes":[6.9374664E1,1.3648766E1,3.965493E1,9.642073E0,2.4711227E0,0E0,8.642345E0,0E0,0E0,0E0,0E0,0E0,0E0],"parents":[2147483647,0,0,1,1,2,2,3,3,4,4,6,6],"right_children":[2,4,6,8,10,-1,12,-1,-1,-1,-1,-1,-1],"split_conditions":[2.1212122E-1,8.9141235E-2,-4E-1,-4E-1,-1.6170869E-2,-5.7296794E-2,9.0666795E-1,-5.6951474E-2,-4.5493498E-4,-1.8058581E-2,-5.0246757E-2,3.1014008E-2,6.569325E-2],"split_indices":[0,1,1,1,2,0,0,0,0,0,0,0,0],"split_type":[0,0,0,0,0,0,0,0,0,0,0,0,0],"sum_hessian":[7.811117E2,4.2535065E2,3.5576102E2,2.1220026E2,2.131504E2,4.316153E1,3.125995E2,3.543914E1,1.7676111E2,2.9087488E1,1.8406291E2,1.9667299E2,1.1592649E2],"tree_param":{"num_deleted":"0","num_feature":"3","num_nodes":"13","size_leaf_vector":"1"}},{"base_weights":[5.6917486E-3,2.6168084E-1,-5.4042125E-1,-5.5730995E-2,4.7414717E-1,-1.1519412E-1,-5.466063E-2,2.6011094E-2,-2.5411138E-2,-1.6435945E-2,5.9664585E-2,-3.188041E-2,1.5119888E-2],"categories":[],"categories_nodes":[],"categories_segments":[],"categories_sizes":[],"default_left":[0,0,0,0,0,0,0,0,0,0,0,0,0],"id":20,"left_children":[1,3,5,7,9,11,-1,-1,-1,-1,-1,-1,-1],"loss_changes":[6.609672E1,2.1734524E1,3.3389664E-1,8.209233E0,1.5188065E1,2.3426707E-1,0E0,0E0,0E0,0E0,0E0,0E0,0E0],"parents":[2147483647,0,0,1,1,2,2,3,3,4,4,5,5],"right_children":[2,4,6,8,10,12,-1,-1,-1,-1,-1,-1,-1],"split_conditions":[9.6969694E-2,-2.988041E-1,1.21212125E-1,6.8277985E-2,-3.9517042E-1,2.233878E-1,-5.466063E-2,2.6011094E-2,-2.5411138E-2,-1.6435945E-2,5.9664585E-2,-3.188041E-2,1.5119888E-2],"split_indices":[0,0,0,2,1,1,0,0,0,0,0,0,0],"split_type":[0,0,0,0,0,0,0,0,0,0,0,0,0],"sum_hessian":[4.7078674E2,3.208908E2,1.4989592E2,1.2896405E2,1.9192677E2,2.4303706E0,1.4746556E2,4.963263E1,7.933142E1,3.083935E1,1.6108742E2,1.2659976E0,1.164373E0],"tree_param":{"num_deleted":"0","num_feature":"3","num_nodes":"13","size_leaf_vector":"1"}},{"base_weights":[8.3295135E-3,6.2435664E-2,-6.086931E-2,-2.3615369E-1,1.4683793E-1,9.4779385E-3,-2.671673E-2,4.0202733E-2,-5.391599E-3],"categories":[],"categories_nodes":[],"categories_segments":[],"categories_sizes":[],"default_left":[0,0,0,0,0,0,0,0,0],"id":21,"left_children":[1,-1,3,5,7,-1,-1,-1,-1],"loss_changes":[4.1321556E1,0E0,3.1766401E1,4.8805065E0,2.048849E1,0E0,0E0,0E0,0E0],"parents":[2147483647,0,0,2,2,3,3,4,4],"right_children":[2,-1,4,6,8,-1,-1,-1,-1],"split_conditions":[-4E-1,6.2435664E-2,1.4061329E-1,-3.6969697E-1,-2E-1,9.4779385E-3,-2.671673E-2,4.0202733E-2,-5.391599E-3],"split_indices":[1,0,2,0,0,0,0,0,0],"split_type":[0,0,0,0,0,0,0,0,0],"sum_hessian":[9.6745294E2,9.688986E1,8.705631E2,4.7205682E2,3.9850626E2,4.0272285E1,4.3178455E2,1.7502269E2,2.2348358E2],"tree_param":{"num_deleted":"0","num_feature":"3","num_nodes":"9","size_leaf_vector":"1"}},{"base_weights":[-3.8343754E-2,-3.0244568E-1,2.6113912E-1,-7.46723E-2,-4.2760888E-1,-5.6227382E-2,3.585116E-1,-5.5876393E-2,6.3321604E-3,-3.102619E-2,-5.028167E-2,2.1022987E-2,5.656457E-2],"categories":[],"categories_nodes":[],"categories_segments":[],"categories_sizes":[],"default_left":[0,0,0,0,0,0,0,0,0,0,0,0,0],"id":22,"left_children":[1,3,5,7,9,-1,11,-1,-1,-1,-1,-1,-1],"loss_changes":[6.12277E1,1.1693417E1,2.9292192E1,9.859786E0,2.1846733E0,0E0,9.865307E0,0E0,0E0,0E0,0E0,0E0,0E0],"parents":[2147483647,0,0,1,1,2,2,3,3,4,4,6,6],"right_children":[2,4,6,8,10,-1,12,-1,-1,-1,-1,-1,-1],"split_conditions":[1.8787879E-1,-1.6842379E-1,-4E-1,-4E-1,2.9099092E-1,-5.6227382E-2,8.666667E-1,-5.5876393E-2,6.3321604E-3,-3.102619E-2,-5.028167E-2,2.1022987E-2,5.656457E-2],"split_indices":[0,1,1,1,2,0,0,0,0,0,0,0,0],"split_type":[0,0,0,0,0,0,0,0,0,0,0,0,0],"sum_hessian":[7.721145E2,4.1028806E2,3.6182645E2,1.4606818E2,2.6421988E2,3.775802E1,3.2406842E2,3.1725134E1,1.1434304E2,1.0520054E2,1.5901933E2,1.900393E2,1.340291E2],"tree_param":{"num_deleted":"0","num_feature":"3","num_nodes":"13","size_leaf_vector":"1"}},{"base_weights":[-3.1124165E-2,1.9644518E-1,-5.436336E-2,2.913309E-1,-4.3024263E-1,-1.2934222E-2,5.100509E-2,-4.9352877E-2,1.1775764E-2],"categories":[],"categories_nodes":[],"categories_segments":[],"categories_sizes":[],"default_left":[0,0,0,0,0,0,0,0,0],"id":23,"left_children":[1,3,-1,5,7,-1,-1,-1,-1],"loss_changes":[5.5138924E1,1.9599197E1,0E0,2.6290833E1,1.5656319E0,0E0,0E0,0E0,0E0],"parents":[2147483647,0,0,1,1,3,3,4,4],"right_children":[2,4,-1,6,8,-1,-1,-1,-1],"split_conditions":[1.21212125E-1,1.4E0,-5.436336E-2,-1.6842379E-1,1.1277174E1,-1.2934222E-2,5.100509E-2,-4.9352877E-2,1.1775764E-2],"split_indices":[0,1,0,1,2,0,0,0,0],"split_type":[0,0,0,0,0,0,0,0,0],"sum_hessian":[4.7084647E2,3.2649133E2,1.4435512E2,2.8402304E2,4.2468307E1,9.729678E1,1.8672624E2,3.8160698E1,4.3076096E0],"tree_param":{"num_deleted":"0","num_feature":"3","num_nodes":"9","size_leaf_vector":"1"}},{"base_weights":[1.3004334E-2,6.103049E-2,-5.4465756E-2,-2.205611E-1,1.5162043E-1,-1.7323975E-2,-4.005263E-2,4.6183664E-2,8.360054E-4],"categories":[],"categories_nodes":[],"categories_segments":[],"categories_sizes":[],"default_left":[0,0,0,0,0,0,0,0,0],"id":24,"left_children":[1,-1,3,5,7,-1,-1,-1,-1],"loss_changes":[3.78968E1,0E0,2.8961327E1,3.919283E0,1.6783619E1,0E0,0E0,0E0,0E0],"parents":[2147483647,0,0,2,2,3,3,4,4],"right_children":[2,-1,4,6,8,-1,-1,-1,-1],"split_conditions":[-4E-1,6.103049E-2,1.6414993E-1,8.484849E-1,-3.1786698E-1,-1.7323975E-2,-4.005263E-2,4.6183664E-2,8.360054E-4],"split_indices":[1,0,2,0,0,0,0,0,0],"split_type":[0,0,0,0,0,0,0,0,0],"sum_hessian":[9.3854425E2,9.4439835E1,8.441044E2,4.6736273E2,3.7674167E2,3.7161118E2,9.575156E1,1.18316086E2,2.5842557E2],"tree_param":{"num_deleted":"0","num_feature":"3","num_nodes":"9","size_leaf_vector":"1"}},{"base_weights":[1.4524818E-3,-2.6783812E-1,3.0761802E-1,-8.5597776E-2,-4.670366E-1,-5.53519E-2,4.027155E-1,-5.4895382E-2,-1.2774925E-3,-3.711343E-2,-5.3886384E-2,2.8814403E-2,6.1154366E-2],"categories":[],"categories_nodes":[],"categories_segments":[],"categories_sizes":[],"default_left":[0,0,0,0,0,0,0,0,0,0,0,0,0],"id":25,"left_children":[1,3,5,7,9,-1,11,-1,-1,-1,-1,-1,-1],"loss_changes":[6.3798023E1,1.490542E1,2.98765E1,7.289019E0,1.1533775E0,0E0,7.639694E0,0E0,0E0,0E0,0E0,0E0,0E0],"parents":[2147483647,0,0,1,1,2,2,3,3,4,4,6,6],"right_children":[2,4,6,8,10,-1,12,-1,-1,-1,-1,-1,-1],"split_conditions":[2.1212122E-1,1.9772927E-1,-4E-1,-4E-1,6.4404744E-1,-5.53519E-2,9.1968524E-1,-5.4895382E-2,-1.2774925E-3,-3.711343E-2,-5.3886384E-2,2.8814403E-2,6.1154366E-2],"split_indices":[0,1,1,1,1,0,0,0,0,0,0,0,0],"split_type":[0,0,0,0,0,0,0,0,0,0,0,0,0],"sum_hessian":[7.7180237E2,4.1069614E2,3.6110623E2,2.1522415E2,1.95472E2,3.543259E1,3.2567365E2,2.8343348E1,1.868808E2,8.634839E1,1.0912362E2,2.1183327E2,1.1384037E2],"tree_param":{"num_deleted":"0","num_feature":"3","num_nodes":"13","size_leaf_vector":"1"}},{"base_weights":[1.4752634E-2,2.298918E-1,-5.4039665E-2,-1.4765447E-1,3.7597752E-1,2.782073E-2,-4.3203272E-2,-2.2220735E-2,4.7066912E-2],"categories":[],"categories_nodes":[],"categories_segments":[],"categories_sizes":[],"default_left":[0,0,0,0,0,0,0,0,0],"id":26,"left_children":[1,3,-1,5,7,-1,-1,-1,-1],"loss_changes":[5.666179E1,1.8910849E1,0E0,1.1757707E1,1.4082546E1,0E0,0E0,0E0,0E0],"parents":[2147483647,0,0,1,1,3,3,4,4],"right_children":[2,4,-1,6,8,-1,-1,-1,-1],"split_conditions":[1.21212125E-1,-3.351841E-1,-5.4039665E-2,4.6834927E-2,-3.9517042E-1,2.782073E-2,-4.3203272E-2,-2.2220735E-2,4.7066912E-2],"split_indices":[0,0,0,2,1,0,0,0,0],"split_type":[0,0,0,0,0,0,0,0,0],"sum_hessian":[4.7237772E2,3.4086633E2,1.3151138E2,9.509375E1,2.4577258E2,3.8083977E1,5.7009777E1,3.340434E1,2.1236824E2],"tree_param":{"num_deleted":"0","num_feature":"3","num_nodes":"9","size_leaf_vector":"1"}},{"base_weights":[8.907047E-3,5.9869647E-2,-5.318673E-2,3.592206E-1,-1.3885933E-1,2.3988427E-3,4.9851496E-2,-2.6047219E-2,1.1211628E-3],"categories":[],"categories_nodes":[],"categories_segments":[],"categories_sizes":[],"default_left":[0,0,0,0,0,0,0,0,0],"id":27,"left_children":[1,-1,3,5,7,-1,-1,-1,-1],"loss_changes":[3.5229416E1,0E0,3.08053E1,6.9926395E0,1.3170049E1,0E0,0E0,0E0,0E0],"parents":[2147483647,0,0,2,2,3,3,4,4],"right_children":[2,-1,4,6,8,-1,-1,-1,-1],"split_conditions":[-4E-1,5.9869647E-2,-3.351841E-1,1.7734513E-2,1.01106785E-1,2.3988427E-3,4.9851496E-2,-2.6047219E-2,1.1211628E-3],"split_indices":[1,0,0,2,2,0,0,0,0],"split_type":[0,0,0,0,0,0,0,0,0],"sum_hessian":[9.6009796E2,9.0628975E1,8.69469E2,1.4900444E2,7.2046454E2,4.4083443E1,1.04921005E2,3.9755923E2,3.229053E2],"tree_param":{"num_deleted":"0","num_feature":"3","num_nodes":"9","size_leaf_vector":"1"}},{"base_weights":[-6.9620614E-3,-2.2275831E-1,2.3232879E-1,1.12796575E-1,-3.363914E-1,-5.4665085E-2,3.1997502E-1,-5.3950388E-2,3.3275213E-2,-2.4060454E-2,-4.6840195E-2,2.5503343E-2,6.441025E-2],"categories":[],"categories_nodes":[],"categories_segments":[],"categories_sizes":[],"default_left":[0,0,0,0,0,0,0,0,0,0,0,0,0],"id":28,"left_children":[1,3,5,7,9,-1,11,-1,-1,-1,-1,-1,-1],"loss_changes":[3.8949802E1,1.5160219E1,2.4595795E1,1.46818495E1,3.6367455E0,0E0,6.6166115E0,0E0,0E0,0E0,0E0,0E0,0E0],"parents":[2147483647,0,0,1,1,2,2,3,3,4,4,6,6],"right_children":[2,4,6,8,10,-1,12,-1,-1,-1,-1,-1,-1],"split_conditions":[2.1212122E-1,-2E-1,-4E-1,-4E-1,4.4138288E-1,-5.4665085E-2,1.3636364E0,-5.3950388E-2,3.3275213E-2,-2.4060454E-2,-4.6840195E-2,2.5503343E-2,6.441025E-2],"split_indices":[0,1,1,1,1,0,0,0,0,0,0,0,0],"split_type":[0,0,0,0,0,0,0,0,0,0,0,0,0],"sum_hessian":[7.522824E2,3.9559644E2,3.5668597E2,1.0007766E2,2.9551877E2,3.5543804E1,3.2114218E2,2.487009E1,7.5207565E1,1.7289137E2,1.22627396E2,2.690272E2,5.2114994E1],"tree_param":{"num_deleted":"0","num_feature":"3","num_nodes":"13","size_leaf_vector":"1"}},{"base_weights":[-2.3412693E-3,2.1199182E-1,-5.3207004E-1,-6.0727887E-2,4.2609712E-1,-1.5389948E-1,-5.3811647E-2,-4.6685826E-2,7.6020896E-3,-2.2120083E-2,5.2432723E-2,1.5396002E-2,-3.579854E-2],"categories":[],"categories_nodes":[],"categories_segments":[],"categories_sizes":[],"default_left":[0,0,0,0,0,0,0,0,0,0,0,0,0],"id":29,"left_children":[1,3,5,7,9,11,-1,-1,-1,-1,-1,-1,-1],"loss_changes":[5.3591656E1,1.9648314E1,2.2808075E-1,8.292386E0,1.2094112E1,2.775491E-1,0E0,0E0,0E0,0E0,0E0,0E0,0E0],"parents":[2147483647,0,0,1,1,2,2,3,3,4,4,5,5],"right_children":[2,4,6,8,10,12,-1,-1,-1,-1,-1,-1,-1],"split_conditions":[9.090909E-2,-2.808381E-1,9.6969694E-2,-1.0626787E-1,-3.9517042E-1,2.3185337E-1,-5.3811647E-2,-4.6685826E-2,7.6020896E-3,-2.2120083E-2,5.2432723E-2,1.5396002E-2,-3.579854E-2],"split_indices":[0,0,0,1,1,2,0,0,0,0,0,0,0],"split_type":[0,0,0,0,0,0,0,0,0,0,0,0,0],"sum_hessian":[4.7002002E2,3.3505396E2,1.3496606E2,1.4767155E2,1.8738239E2,2.5402575E0,1.3242581E2,3.6589718E1,1.1108183E2,2.4524384E1,1.62858E2,1.1105806E0,1.4296768E0],"tree_param":{"num_deleted":"0","num_feature":"3","num_nodes":"13","size_leaf_vector":"1"}},{"base_weights":[1.5518312E-2,5.8664292E-2,-3.5897378E-2,-8.819322E-2,3.962319E-1,1.0450006E-2,-1.461636E-2,5.0369024E-2,-2.3576496E-2],"categories":[],"categories_nodes":[],"categories_segments":[],"categories_sizes":[],"default_left":[0,0,0,0,0,0,0,0,0],"id":30,"left_children":[1,-1,3,5,7,-1,-1,-1,-1],"loss_changes":[2.7991852E1,0E0,1.980421E1,8.74146E0,6.5447674E0,0E0,0E0,0E0,0E0],"parents":[2147483647,0,0,2,2,3,3,4,4],"right_children":[2,-1,4,6,8,-1,-1,-1,-1],"split_conditions":[-4E-1,5.8664292E-2,1.4E0,-2.808381E-1,6.060606E-3,1.0450006E-2,-1.461636E-2,5.0369024E-2,-2.3576496E-2],"split_indices":[1,0,1,0,0,0,0,0,0],"split_type":[0,0,0,0,0,0,0,0,0],"sum_hessian":[9.5152905E2,7.7727165E1,8.738019E2,7.801811E2,9.3620804E1,1.8024498E2,5.999361E2,8.0189255E1,1.3431553E1],"tree_param":{"num_deleted":"0","num_feature":"3","num_nodes":"9","size_leaf_vector":"1"}},{"base_weights":[-1.634397E-2,-2.2461815E-1,2.526282E-1,-9.663073E-2,-4.371764E-1,-5.365149E-2,3.289394E-1,-5.3317238E-2,-4.9824025E-3,-2.0205447E-2,-4.7961023E-2,2.7472703E-2,5.8952685E-2],"categories":[],"categories_nodes":[],"categories_segments":[],"categories_sizes":[],"default_left":[0,0,0,0,0,0,0,0,0,0,0,0,0],"id":31,"left_children":[1,3,5,7,9,-1,11,-1,-1,-1,-1,-1,-1],"loss_changes":[4.160271E1,1.1343084E1,1.969532E1,5.3371525E0,1.469532E0,0E0,4.021961E0,0E0,0E0,0E0,0E0,0E0,0E0],"parents":[2147483647,0,0,1,1,2,2,3,3,4,4,6,6],"right_children":[2,4,6,8,10,-1,12,-1,-1,-1,-1,-1,-1],"split_conditions":[3.212121E-1,3.660649E-1,-4E-1,-4E-1,1.6414993E-1,-5.365149E-2,1.4006748E0,-5.3317238E-2,-4.9824025E-3,-2.0205447E-2,-4.7961023E-2,2.7472703E-2,5.8952685E-2],"split_indices":[0,1,1,1,2,0,0,0,0,0,0,0,0],"split_type":[0,0,0,0,0,0,0,0,0,0,0,0,0],"sum_hessian":[7.406278E2,4.1750476E2,3.2312305E2,2.615017E2,1.5600308E2,2.7959538E1,2.951635E2,2.4317177E1,2.3718452E2,2.4731224E1,1.3127185E2,2.4603323E2,4.913029E1],"tree_param":{"num_deleted":"0","num_feature":"3","num_nodes":"13","size_leaf_vector":"1"}},{"base_weights":[1.4557974E-2,2.1208885E-1,-5.353249E-2,1.2452843E-1,1.0679047E0,2.022733E-2,-3.496895E-2,-1.6233336E-2,1.3086893E-1],"categories":[],"categories_nodes":[],"categories_segments":[],"categories_sizes":[],"default_left":[0,0,0,0,0,0,0,0,0],"id":32,"left_children":[1,3,-1,5,7,-1,-1,-1,-1],"loss_changes":[4.9966625E1,2.5224396E1,0E0,1.1430249E1,9.477066E0,0E0,0E0,0E0,0E0],"parents":[2147483647,0,0,1,1,3,3,4,4],"right_children":[2,4,-1,6,8,-1,-1,-1,-1],"split_conditions":[9.6969694E-2,4.7216583E-2,-5.353249E-2,1.4240966E0,-1.6553903E-1,2.022733E-2,-3.496895E-2,-1.6233336E-2,1.3086893E-1],"split_indices":[0,0,0,2,2,0,0,0,0],"split_type":[0,0,0,0,0,0,0,0,0],"sum_hessian":[4.5797275E2,3.3738898E2,1.2058376E2,3.0711307E2,3.0275913E1,2.6434836E2,4.2764694E1,5.0090485E0,2.5266863E1],"tree_param":{"num_deleted":"0","num_feature":"3","num_nodes":"9","size_leaf_vector":"1"}},{"base_weights":[2.4225056E-2,5.7786293E-2,-2.2798285E-2,-7.619597E-2,4.2051014E-1,-2.563713E-3,-3.3883344E-2,4.9053993E-2,-4.6172094E-2],"categories":[],"categories_nodes":[],"categories_segments":[],"categories_sizes":[],"default_left":[0,0,0,0,0,0,0,0,0],"id":33,"left_children":[1,-1,3,5,7,-1,-1,-1,-1],"loss_changes":[2.4286253E1,0E0,2.0397587E1,1.019851E1,5.9501762E0,0E0,0E0,0E0,0E0],"parents":[2147483647,0,0,2,2,3,3,4,4],"right_children":[2,-1,4,6,8,-1,-1,-1,-1],"split_conditions":[-4E-1,5.7786293E-2,1.4E0,8.666667E-1,5.7575756E-1,-2.563713E-3,-3.3883344E-2,4.9053993E-2,-4.6172094E-2],"split_indices":[1,0,1,0,0,0,0,0,0],"split_type":[0,0,0,0,0,0,0,0,0],"sum_hessian":[9.3136414E2,7.202898E1,8.593352E2,7.676927E2,9.164251E1,6.4468555E2,1.23007126E2,8.531439E1,6.3281136E0],"tree_param":{"num_deleted":"0","num_feature":"3","num_nodes":"9","size_leaf_vector":"1"}},{"base_weights":[-3.369037E-2,-2.4916287E-1,2.0207325E-1,-7.598467E-2,-3.8591182E-1,-5.3008407E-2,2.6410368E-1,-5.2371826E-2,-1.087789E-3,1.1675137E-2,-4.001474E-2,1.9243287E-2,5.3127762E-2],"categories":[],"categories_nodes":[],"categories_segments":[],"categories_sizes":[],"default_left":[0,0,0,0,0,0,0,0,0,0,0,0,0],"id":34,"left_children":[1,3,5,7,9,-1,11,-1,-1,-1,-1,-1,-1],"loss_changes":[3.6979134E1,8.975981E0,1.5930061E1,4.9215293E0,1.5653973E0,0E0,6.0480576E0,0E0,0E0,0E0,0E0,0E0,0E0],"parents":[2147483647,0,0,1,1,2,2,3,3,4,4,6,6],"right_children":[2,4,6,8,10,-1,12,-1,-1,-1,-1,-1,-1],"split_conditions":[2.1212122E-1,2.6824078E-2,-4E-1,-4E-1,-4.31329E-1,-5.3008407E-2,1.1878788E0,-5.2371826E-2,-1.087789E-3,1.1675137E-2,-4.001474E-2,1.9243287E-2,5.3127762E-2],"split_indices":[0,2,1,1,0,0,0,0,0,0,0,0,0],"split_type":[0,0,0,0,0,0,0,0,0,0,0,0,0],"sum_hessian":[7.259364E2,3.792604E2,3.46676E2,1.6802722E2,2.1123318E2,2.6487953E1,3.2018805E2,2.0437355E1,1.4758987E2,5.619111E0,2.0561407E2,2.5381981E2,6.636824E1],"tree_param":{"num_deleted":"0","num_feature":"3","num_nodes":"13","size_leaf_vector":"1"}},{"base_weights":[-3.4785047E-3,1.7433643E-1,-5.247538E-1,2.4570574E-1,-3.8745472E-1,-1.537924E-1,-5.3230878E-2,-1.0497603E-2,3.939576E-2,-4.837474E-2,5.4482467E-2,-3.4425575E-2,1.3498709E-2],"categories":[],"categories_nodes":[],"categories_segments":[],"categories_sizes":[],"default_left":[0,0,0,0,0,0,0,0,0,0,0,0,0],"id":35,"left_children":[1,3,5,7,9,11,-1,-1,-1,-1,-1,-1,-1],"loss_changes":[4.2708435E1,1.3871006E1,2.4658585E-1,1.5922295E1,3.7750998E0,2.5247645E-1,0E0,0E0,0E0,0E0,0E0,0E0,0E0],"parents":[2147483647,0,0,1,1,2,2,3,3,4,4,5,5],"right_children":[2,4,6,8,10,12,-1,-1,-1,-1,-1,-1,-1],"split_conditions":[9.6969694E-2,1.4E0,1.21212125E-1,-1.6842379E-1,1.765917E1,2.233878E-1,-5.3230878E-2,-1.0497603E-2,3.939576E-2,-4.837474E-2,5.4482467E-2,-3.4425575E-2,1.3498709E-2],"split_indices":[0,1,0,1,2,1,0,0,0,0,0,0,0],"split_type":[0,0,0,0,0,0,0,0,0,0,0,0,0],"sum_hessian":[4.5877673E2,3.4258228E2,1.1619447E2,3.044659E2,3.8116364E1,2.745441E0,1.13449036E2,9.055496E1,2.1391095E2,3.4984062E1,3.1322978E0,1.5385743E0,1.2068666E0],"tree_param":{"num_deleted":"0","num_feature":"3","num_nodes":"13","size_leaf_vector":"1"}},{"base_weights":[-6.202957E-3,5.6875605E-2,-5.2329734E-2,-1.7709929E-1,1.12559505E-1,8.214264E-3,-2.0043306E-2,1.6154617E-2,-4.3346617E-2],"categories":[],"categories_nodes":[],"categories_segments":[],"categories_sizes":[],"default_left":[0,0,0,0,0,0,0,0,0],"id":36,"left_children":[1,-1,3,5,7,-1,-1,-1,-1],"loss_changes":[2.4324594E1,0E0,1.7485346E1,2.9421177E0,9.867548E0,0E0,0E0,0E0,0E0],"parents":[2147483647,0,0,2,2,3,3,4,4],"right_children":[2,-1,4,6,8,-1,-1,-1,-1],"split_conditions":[-4E-1,5.6875605E-2,1.6414993E-1,-3.6363637E-1,8.969697E-1,8.214264E-3,-2.0043306E-2,1.6154617E-2,-4.3346617E-2],"split_indices":[1,0,2,0,0,0,0,0,0],"split_type":[0,0,0,0,0,0,0,0,0],"sum_hessian":[9.1506E2,6.7118164E1,8.4794183E2,4.8265158E2,3.6529025E2,3.964699E1,4.4300458E2,3.358625E2,2.9427744E1],"tree_param":{"num_deleted":"0","num_feature":"3","num_nodes":"9","size_leaf_vector":"1"}},{"base_weights":[-1.7148219E-2,-2.2095156E-1,2.010693E-1,-2.9982312E-2,-3.4660867E-1,-5.234E-2,2.5616044E-1,-5.191925E-2,5.1557766E-3,6.2956894E-3,-3.656423E-2,-3.0350704E-2,2.7255962E-2],"categories":[],"categories_nodes":[],"categories_segments":[],"categories_sizes":[],"default_left":[0,0,0,0,0,0,0,0,0,0,0,0,0],"id":37,"left_children":[1,3,5,7,9,-1,11,-1,-1,-1,-1,-1,-1],"loss_changes":[3.2315426E1,9.004675E0,1.41408825E1,6.0178065E0,1.788641E0,0E0,3.0822487E0,0E0,0E0,0E0,0E0,0E0,0E0],"parents":[2147483647,0,0,1,1,2,2,3,3,4,4,6,6],"right_children":[2,4,6,8,10,-1,12,-1,-1,-1,-1,-1,-1],"split_conditions":[2.1212122E-1,-4.7527507E-2,-4E-1,-4E-1,-2.8245673E-1,-5.234E-2,-4.5614085E-1,-5.191925E-2,5.1557766E-3,6.2956894E-3,-3.656423E-2,-3.0350704E-2,2.7255962E-2],"split_indices":[0,1,1,1,2,0,2,0,0,0,0,0,0],"split_type":[0,0,0,0,0,0,0,0,0,0,0,0,0],"sum_hessian":[7.2462384E2,3.7468024E2,3.4994357E2,1.4918806E2,2.2549216E2,2.4129608E1,3.2581396E2,2.0546907E1,1.2864116E2,9.911386E0,2.1558078E2,8.776712E0,3.1703726E2],"tree_param":{"num_deleted":"0","num_feature":"3","num_nodes":"13","size_leaf_vector":"1"}},{"base_weights":[-1.5684444E-2,1.4500786E-1,-5.2166045E-1,8.032909E-2,7.819217E-1,-1.7722967E-1,-5.295328E-2,-4.158407E-2,1.5078868E-2,-1.989829E-2,9.894221E-2,-3.613E-2,1.3284467E-2],"categories":[],"categories_nodes":[],"categories_segments":[],"categories_sizes":[],"default_left":[0,0,0,0,0,0,0,0,0,0,0,0,0],"id":38,"left_children":[1,3,5,7,9,11,-1,-1,-1,-1,-1,-1,-1],"loss_changes":[3.7337864E1,1.4298104E1,2.0626259E-1,1.1165504E1,6.7148457E0,2.7494663E-1,0E0,0E0,0E0,0E0,0E0,0E0,0E0],"parents":[2147483647,0,0,1,1,2,2,3,3,4,4,5,5],"right_children":[2,4,6,8,10,12,-1,-1,-1,-1,-1,-1,-1],"split_conditions":[9.6969694E-2,4.7216583E-2,1.21212125E-1,-3.9517042E-1,-1.1881264E-1,2.233878E-1,-5.295328E-2,-4.158407E-2,1.5078868E-2,-1.989829E-2,9.894221E-2,-3.613E-2,1.3284467E-2],"split_indices":[0,0,0,1,2,1,0,0,0,0,0,0,0],"split_type":[0,0,0,0,0,0,0,0,0,0,0,0,0],"sum_hessian":[4.5729346E2,3.4760986E2,1.0968358E2,3.1658655E2,3.1023327E1,2.976311E0,1.0670727E2,3.8757565E1,2.7782898E2,5.423968E0,2.559936E1,1.7639613E0,1.2123497E0],"tree_param":{"num_deleted":"0","num_feature":"3","num_nodes":"13","size_leaf_vector":"1"}},{"base_weights":[-1.9943848E-2,5.608747E-2,-6.66836E-2,2.4993616E-1,-1.3051517E-1,-1.7481033E-3,4.0257107E-2,-8.868779E-3,-3.6597326E-2],"categories":[],"categories_nodes":[],"categories_segments":[],"categories_sizes":[],"default_left":[0,0,0,0,0,0,0,0,0],"id":39,"left_children":[1,-1,3,5,7,-1,-1,-1,-1],"loss_changes":[2.4127296E1,0E0,1.6649153E1,5.651533E0,6.7127743E0,0E0,0E0,0E0,0E0],"parents":[2147483647,0,0,2,2,3,3,4,4],"right_children":[2,-1,4,6,8,-1,-1,-1,-1],"split_conditions":[-4E-1,5.608747E-2,-3.351841E-1,6.8277985E-2,9.1968524E-1,-1.7481033E-3,4.0257107E-2,-8.868779E-3,-3.6597326E-2],"split_indices":[1,0,0,2,0,0,0,0,0],"split_type":[0,0,0,0,0,0,0,0,0],"sum_hessian":[8.863767E2,6.519696E1,8.2117975E2,1.3728719E2,6.838926E2,5.020799E1,8.70792E1,5.818992E2,1.0199341E2],"tree_param":{"num_deleted":"0","num_feature":"3","num_nodes":"9","size_leaf_vector":"1"}},{"base_weights":[-1.4368942E-2,-1.7549388E-1,2.0975375E-1,-2.120838E-2,-4.0546548E-1,-5.1587846E-2,2.6618952E-1,-5.1696E-2,2.9790092E-3,-6.1098733E-3,-4.2893283E-2,2.0392472E-2,4.8032142E-2],"categories":[],"categories_nodes":[],"categories_segments":[],"categories_sizes":[],"default_left":[0,0,0,0,0,0,0,0,0,0,0,0,0],"id":40,"left_children":[1,3,5,7,9,-1,11,-1,-1,-1,-1,-1,-1],"loss_changes":[2.5732008E1,1.4698241E1,1.2342985E1,6.3139E0,1.3183041E0,0E0,3.5979595E0,0E0,0E0,0E0,0E0,0E0,0E0],"parents":[2147483647,0,0,1,1,2,2,3,3,4,4,6,6],"right_children":[2,4,6,8,10,-1,12,-1,-1,-1,-1,-1,-1],"split_conditions":[4.2424244E-1,2.0106976E-1,-4E-1,-4E-1,-2.9515877E-1,-5.1587846E-2,1.2121212E0,-5.1696E-2,2.9790092E-3,-6.1098733E-3,-4.2893283E-2,2.0392472E-2,4.8032142E-2],"split_indices":[0,2,1,1,1,0,0,0,0,0,0,0,0],"split_type":[0,0,0,0,0,0,0,0,0,0,0,0,0],"sum_hessian":[7.1054663E2,4.1349576E2,2.9705087E2,2.4812415E2,1.6537161E2,2.0848381E1,2.762025E2,2.2291704E1,2.2583243E2,1.0780393E1,1.5459122E2,2.1549396E2,6.0708538E1],"tree_param":{"num_deleted":"0","num_feature":"3","num_nodes":"13","size_leaf_vector":"1"}},{"base_weights":[-3.3046682E-3,1.5461633E-1,-5.2737266E-2,-1.3286564E-1,2.8899747E-1,1.2136101E-2,-3.28333E-2,3.4272976E-2,-2.863735E-2],"categories":[],"categories_nodes":[],"categories_segments":[],"categories_sizes":[],"default_left":[0,0,0,0,0,0,0,0,0],"id":41,"left_children":[1,3,-1,5,7,-1,-1,-1,-1],"loss_changes":[3.655292E1,1.3150567E1,0E0,5.4465284E0,7.2585716E0,0E0,0E0,0E0,0E0],"parents":[2147483647,0,0,1,1,3,3,4,4],"right_children":[2,4,-1,6,8,-1,-1,-1,-1],"split_conditions":[1.21212125E-1,-3.1786698E-1,-5.2737266E-2,6.8277985E-2,1.4240966E0,1.2136101E-2,-3.28333E-2,3.4272976E-2,-2.863735E-2],"split_indices":[0,0,0,2,2,0,0,0,0],"split_type":[0,0,0,0,0,0,0,0,0],"sum_hessian":[4.396814E2,3.3841074E2,1.0127066E2,1.0780165E2,2.3060909E2,4.7022667E1,6.0778984E1,2.1128236E2,1.9326733E1],"tree_param":{"num_deleted":"0","num_feature":"3","num_nodes":"9","size_leaf_vector":"1"}},{"base_weights":[2.3890456E-2,5.54128E-2,-1.4137093E-2,2.6823205E-1,-7.877437E-2,2.1399353E-3,3.8246214E-2,-4.889454E-3,-4.4990633E-2],"categories":[],"categories_nodes":[],"categories_segments":[],"categories_sizes":[],"default_left":[0,0,0,0,0,0,0,0,0],"id":42,"left_children":[1,-1,3,5,7,-1,-1,-1,-1],"loss_changes":[1.7854548E1,0E0,1.5112258E1,4.3408184E0,7.4477553E0,0E0,0E0,0E0,0E0],"parents":[2147483647,0,0,2,2,3,3,4,4],"right_children":[2,-1,4,6,8,-1,-1,-1,-1],"split_conditions":[-4E-1,5.54128E-2,-3.3241042E-1,1.7734513E-2,1.3151516E0,2.1399353E-3,3.8246214E-2,-4.889454E-3,-4.4990633E-2],"split_indices":[1,0,0,2,0,0,0,0,0],"split_type":[0,0,0,0,0,0,0,0,0],"sum_hessian":[8.8409406E2,5.82542E1,8.2583984E2,1.532434E2,6.7259644E2,4.885754E1,1.04385864E2,6.2352795E2,4.906848E1],"tree_param":{"num_deleted":"0","num_feature":"3","num_nodes":"9","size_leaf_vector":"1"}},{"base_weights":[-1.8270018E-2,-2.2136444E-1,1.839389E-1,-7.261068E-2,-3.857062E-1,-5.1194917E-2,2.289577E-1,-5.0495144E-2,-2.8238592E-3,-2.7829368E-2,-4.515748E-2,1.3007862E-2,3.9227583E-2],"categories":[],"categories_nodes":[],"categories_segments":[],"categories_sizes":[],"default_left":[0,0,0,0,0,0,0,0,0,0,0,0,0],"id":43,"left_children":[1,3,5,7,9,-1,11,-1,-1,-1,-1,-1,-1],"loss_changes":[2.8898157E1,8.553379E0,1.1165215E1,3.5440412E0,1.0526409E0,0E0,5.309038E0,0E0,0E0,0E0,0E0,0E0,0E0],"parents":[2147483647,0,0,1,1,2,2,3,3,4,4,6,6],"right_children":[2,4,6,8,10,-1,12,-1,-1,-1,-1,-1,-1],"split_conditions":[2.1212122E-1,8.9141235E-2,-4E-1,-4E-1,4.4138288E-1,-5.1194917E-2,8.666667E-1,-5.0495144E-2,-2.8238592E-3,-2.7829368E-2,-4.515748E-2,1.3007862E-2,3.9227583E-2],"split_indices":[0,1,1,1,1,0,0,0,0,0,0,0,0],"split_type":[0,0,0,0,0,0,0,0,0,0,0,0,0],"sum_hessian":[7.01683E2,3.5002774E2,3.5165527E2,1.8448402E2,1.655437E2,2.0736977E1,3.309183E2,1.6205482E1,1.6827855E2,6.4913574E1,1.00630135E2,2.072423E2,1.2367601E2],"tree_param":{"num_deleted":"0","num_feature":"3","num_nodes":"13","size_leaf_vector":"1"}},{"base_weights":[-2.933627E-3,1.476685E-1,-5.202485E-1,8.761177E-2,7.3553294E-1,-5.2914023E-2,-3.104665E-1,-2.2590052E-2,1.9097053E-2,-1.9054515E-2,9.188142E-2,1.9478053E-2,-4.487078E-2],"categories":[],"categories_nodes":[],"categories_segments":[],"categories_sizes":[],"default_left":[0,0,0,0,0,0,0,0,0,0,0,0,0],"id":44,"left_children":[1,3,5,7,9,-1,11,-1,-1,-1,-1,-1,-1],"loss_changes":[3.452867E1,1.2055046E1,2.2123337E-2,1.0172509E1,5.5528297E0,0E0,5.4022115E-1,0E0,0E0,0E0,0E0,0E0,0E0],"parents":[2147483647,0,0,1,1,2,2,3,3,4,4,6,6],"right_children":[2,4,6,8,10,-1,12,-1,-1,-1,-1,-1,-1],"split_conditions":[9.090909E-2,4.7216583E-2,9.709308E-1,-1.6842379E-1,-1.6553903E-1,-5.2914023E-2,4.1445252E-1,-2.2590052E-2,1.9097053E-2,-1.9054515E-2,9.188142E-2,1.9478053E-2,-4.487078E-2],"split_indices":[0,0,1,1,2,0,2,0,0,0,0,0,0],"split_type":[0,0,0,0,0,0,0,0,0,0,0,0,0],"sum_hessian":[4.4120786E2,3.4227762E2,9.8930244E1,3.1159396E2,3.068366E1,9.3447105E1,5.4831414E0,7.696246E1,2.346315E2,5.0628076E0,2.5620852E1,1.0900857E0,4.3930554E0],"tree_param":{"num_deleted":"0","num_feature":"3","num_nodes":"13","size_leaf_vector":"1"}},{"base_weights":[-6.301578E-3,5.4778893E-2,-4.4142082E-2,-1.6790003E-1,1.1939163E-1,-2.070379E-2,-7.6697143E-3,3.674925E-2,4.0902733E-3],"categories":[],"categories_nodes":[],"categories_segments":[],"categories_sizes":[],"default_left":[0,0,0,0,0,0,0,0,0],"id":45,"left_children":[1,-1,3,5,7,-1,-1,-1,-1],"loss_changes":[1.8782331E1,0E0,1.6987709E1,1.689064E0,7.0291495E0,0E0,0E0,0E0,0E0],"parents":[2147483647,0,0,2,2,3,3,4,4],"right_children":[2,-1,4,6,8,-1,-1,-1,-1],"split_conditions":[-4E-1,5.4778893E-2,1.4827393E-1,-7.671879E-2,-3.3241042E-1,-2.070379E-2,-7.6697143E-3,3.674925E-2,4.0902733E-3],"split_indices":[1,0,2,2,0,0,0,0,0],"split_type":[0,0,0,0,0,0,0,0,0],"sum_hessian":[8.9364844E2,5.626696E1,8.373815E2,4.7664362E2,3.6073785E2,3.3263144E2,1.4401219E2,8.5810745E1,2.749271E2],"tree_param":{"num_deleted":"0","num_feature":"3","num_nodes":"9","size_leaf_vector":"1"}},{"base_weights":[-2.3525892E-2,-1.9321296E-1,1.4773405E-1,-4.315222E-2,-3.779074E-1,-5.060473E-2,1.8622795E-1,-4.999102E-2,-1.7382378E-4,-2.530749E-2,-4.363084E-2,8.523534E-3,2.9849274E-2],"categories":[],"categories_nodes":[],"categories_segments":[],"categories_sizes":[],"default_left":[0,0,0,0,0,0,0,0,0,0,0,0,0],"id":46,"left_children":[1,3,5,7,9,-1,11,-1,-1,-1,-1,-1,-1],"loss_changes":[2.0434036E1,9.771052E0,8.903358E0,3.7060523E0,1.0427094E0,0E0,3.7308044E0,0E0,0E0,0E0,0E0,0E0,0E0],"parents":[2147483647,0,0,1,1,2,2,3,3,4,4,6,6],"right_children":[2,4,6,8,10,-1,12,-1,-1,-1,-1,-1,-1],"split_conditions":[2.1212122E-1,1.1230894E-1,-4E-1,-4E-1,2.3185337E-1,-5.060473E-2,7.596823E-1,-4.999102E-2,-1.7382378E-4,-2.530749E-2,-4.363084E-2,8.523534E-3,2.9849274E-2],"split_indices":[0,1,1,1,2,0,0,0,0,0,0,0,0],"split_type":[0,0,0,0,0,0,0,0,0,0,0,0,0],"sum_hessian":[7.011704E2,3.5213815E2,3.4903223E2,1.9496579E2,1.5717236E2,1.8732515E1,3.302997E2,1.528752E1,1.7967827E2,5.179456E1,1.0537781E2,1.7480531E2,1.5549442E2],"tree_param":{"num_deleted":"0","num_feature":"3","num_nodes":"13","size_leaf_vector":"1"}},{"base_weights":[3.6927144E-4,1.4344783E-1,-5.068501E-1,-3.6408845E-1,2.0978199E-1,-1.739651E-1,-5.233503E-2,-4.9831558E-2,-2.71455E-3,2.943015E-2,-3.572238E-2,8.488105E-3,-4.315521E-2],"categories":[],"categories_nodes":[],"categories_segments":[],"categories_sizes":[],"default_left":[0,0,0,0,0,0,0,0,0,0,0,0,0],"id":47,"left_children":[1,3,5,7,9,11,-1,-1,-1,-1,-1,-1,-1],"loss_changes":[3.1796612E1,1.1581617E1,4.3844223E-1,1.7895393E0,1.4619554E1,4.4004962E-1,0E0,0E0,0E0,0E0,0E0,0E0,0E0],"parents":[2147483647,0,0,1,1,2,2,3,3,4,4,5,5],"right_children":[2,4,6,8,10,12,-1,-1,-1,-1,-1,-1,-1],"split_conditions":[9.090909E-2,-3.9517042E-1,1.21212125E-1,-8.4848486E-2,1.492822E0,3.0429447E-1,-5.233503E-2,-4.9831558E-2,-2.71455E-3,2.943015E-2,-3.572238E-2,8.488105E-3,-4.315521E-2],"split_indices":[0,1,0,0,2,2,0,0,0,0,0,0,0],"split_type":[0,0,0,0,0,0,0,0,0,0,0,0,0],"sum_hessian":[4.3613565E2,3.4073648E2,9.539918E1,3.8867153E1,3.0186932E2,5.050493E0,9.034869E1,2.745217E1,1.1414982E1,2.631277E2,3.8741615E1,2.8535101E0,2.1969824E0],"tree_param":{"num_deleted":"0","num_feature":"3","num_nodes":"13","size_leaf_vector":"1"}},{"base_weights":[-8.3575805E-4,5.4127257E-2,-3.514445E-2,-7.262836E-2,2.8214416E-1,-1.5804678E-2,-4.2459136E-4,3.863969E-2,-1.08646555E-2],"categories":[],"categories_nodes":[],"categories_segments":[],"categories_sizes":[],"default_left":[0,0,0,0,0,0,0,0,0],"id":48,"left_children":[1,-1,3,5,7,-1,-1,-1,-1],"loss_changes":[1.659152E1,0E0,9.998247E0,4.3865967E0,3.6615915E0,0E0,0E0,0E0,0E0],"parents":[2147483647,0,0,2,2,3,3,4,4],"right_children":[2,-1,4,6,8,-1,-1,-1,-1],"split_conditions":[-4E-1,5.4127257E-2,1.492822E0,-7.671879E-2,6.060606E-3,-1.5804678E-2,-4.2459136E-4,3.863969E-2,-1.08646555E-2],"split_indices":[1,0,2,2,0,0,0,0,0],"split_type":[0,0,0,0,0,0,0,0,0],"sum_hessian":[8.9004114E2,5.209628E1,8.379449E2,7.5010046E2,8.784443E1,3.3292426E2,4.1717618E2,6.9353874E1,1.8490555E1],"tree_param":{"num_deleted":"0","num_feature":"3","num_nodes":"9","size_leaf_vector":"1"}},{"base_weights":[-3.337949E-2,-1.8679275E-1,1.4352593E-1,-5.115178E-3,-3.2107094E-1,-5.0177462E-2,1.8293558E-1,-4.969662E-2,5.0465004E-3,-2.5546452E-2,-4.3533895E-2,2.5337562E-2,4.5028614E-4],"categories":[],"categories_nodes":[],"categories_segments":[],"categories_sizes":[],"default_left":[0,0,0,0,0,0,0,0,0,0,0,0,0],"id":49,"left_children":[1,3,5,7,9,-1,11,-1,-1,-1,-1,-1,-1],"loss_changes":[1.8877594E1,9.083825E0,8.310064E0,4.3797226E0,1.4940739E0,0E0,3.83601E0,0E0,0E0,0E0,0E0,0E0,0E0],"parents":[2147483647,0,0,1,1,2,2,3,3,4,4,6,6],"right_children":[2,4,6,8,10,-1,12,-1,-1,-1,-1,-1,-1],"split_conditions":[3.030303E-1,-4.7527507E-2,-4E-1,-4E-1,6.4404744E-1,-5.0177462E-2,1.4827393E-1,-4.969662E-2,5.0465004E-3,-2.5546452E-2,-4.3533895E-2,2.5337562E-2,4.5028614E-4],"split_indices":[0,1,1,1,1,0,2,0,0,0,0,0,0],"split_type":[0,0,0,0,0,0,0,0,0,0,0,0,0],"sum_hessian":[6.935851E2,3.714264E2,3.221587E2,1.5829387E2,2.1313252E2,1.7867119E1,3.0429156E2,1.5265142E1,1.4302872E2,1.3745125E2,7.5681274E1,2.1786485E2,8.642672E1],"tree_param":{"num_deleted":"0","num_feature":"3","num_nodes":"13","size_leaf_vector":"1"}},{"base_weights":[-1.888556E-2,1.0352424E-1,-5.2148666E-2,-1.345805E-1,2.5629166E-1,-5.051392E-2,-2.4949352E-3,-2.3648232E-2,3.1574726E-2],"categories":[],"categories_nodes":[],"categories_segments":[],"categories_sizes":[],"default_left":[0,0,0,0,0,0,0,0,0],"id":50,"left_children":[1,3,-1,5,7,-1,-1,-1,-1],"loss_changes":[2.6947392E1,1.2851023E1,0E0,5.6085005E0,6.3732357E0,0E0,0E0,0E0,0E0],"parents":[2147483647,0,0,1,1,3,3,4,4],"right_children":[2,4,-1,6,8,-1,-1,-1,-1],"split_conditions":[1.21212125E-1,-2.808381E-1,-5.2148666E-2,-1.0626787E-1,-3.7754083E-1,-5.051392E-2,-2.4949352E-3,-2.3648232E-2,3.1574726E-2],"split_indices":[0,0,0,1,1,0,0,0,0],"split_type":[0,0,0,0,0,0,0,0,0],"sum_hessian":[4.3612558E2,3.513479E2,8.477767E1,1.373664E2,2.139815E2,3.0538189E1,1.0682821E2,2.271768E1,1.9126382E2],"tree_param":{"num_deleted":"0","num_feature":"3","num_nodes":"9","size_leaf_vector":"1"}},{"base_weights":[1.8399425E-2,5.3507406E-2,-1.0305538E-2,-4.194411E-2,3.3641234E-1,-1.4049364E-3,-4.7206234E-2,4.574361E-2,-3.0209754E-2],"categories":[],"categories_nodes":[],"categories_segments":[],"categories_sizes":[],"default_left":[0,0,0,0,0,0,0,0,0],"id":51,"left_children":[1,-1,3,5,7,-1,-1,-1,-1],"loss_changes":[1.2968329E1,0E0,9.108026E0,9.118752E0,5.503635E0,0E0,0E0,0E0,0E0],"parents":[2147483647,0,0,2,2,3,3,4,4],"right_children":[2,-1,4,6,8,-1,-1,-1,-1],"split_conditions":[-4E-1,5.3507406E-2,1.6E0,1.0307792E0,6.060606E-3,-1.4049364E-3,-4.7206234E-2,4.574361E-2,-3.0209754E-2],"split_indices":[1,0,1,1,0,0,0,0,0],"split_type":[0,0,0,0,0,0,0,0,0],"sum_hessian":[8.7302783E2,4.50216E1,8.280062E2,7.5957294E2,6.843324E1,7.142818E2,4.5291134E1,5.7767525E1,1.0665724E1],"tree_param":{"num_deleted":"0","num_feature":"3","num_nodes":"9","size_leaf_vector":"1"}},{"base_weights":[-2.2990774E-2,-1.6410522E-1,1.12583056E-1,1.2294071E-1,-2.754078E-1,-4.9639802E-2,1.4400177E-1,1.4368073E-3,8.526825E-2,-1.977302E-2,-4.598215E-2,2.1763299E-2,-2.3075468E-3],"categories":[],"categories_nodes":[],"categories_segments":[],"categories_sizes":[],"default_left":[0,0,0,0,0,0,0,0,0,0,0,0,0],"id":52,"left_children":[1,3,5,7,9,-1,11,-1,-1,-1,-1,-1,-1],"loss_changes":[1.299677E1,1.0666553E1,6.7026057E0,7.4099965E0,3.348795E0,0E0,4.068959E0,0E0,0E0,0E0,0E0,0E0,0E0],"parents":[2147483647,0,0,1,1,2,2,3,3,4,4,6,6],"right_children":[2,4,6,8,10,-1,12,-1,-1,-1,-1,-1,-1],"split_conditions":[2.1212122E-1,-2E-1,-4E-1,-3.9517042E-1,6.4404744E-1,-4.9639802E-2,1.01106785E-1,1.4368073E-3,8.526825E-2,-1.977302E-2,-4.598215E-2,2.1763299E-2,-2.3075468E-3],"split_indices":[0,1,1,1,1,0,2,0,0,0,0,0,0],"split_type":[0,0,0,0,0,0,0,0,0,0,0,0,0],"sum_hessian":[6.7737573E2,3.318026E2,3.4557315E2,9.267976E1,2.3912286E2,1.622812E1,3.2934503E2,8.1564156E1,1.111561E1,1.697106E2,6.941225E1,2.2839041E2,1.0095461E2],"tree_param":{"num_deleted":"0","num_feature":"3","num_nodes":"13","size_leaf_vector":"1"}},{"base_weights":[-3.2607738E-3,1.22668326E-1,-5.2120347E-2,-3.5382417E-1,1.7929298E-1,-4.2385142E-2,5.165388E-2,2.373868E-2,-3.0651897E-2],"categories":[],"categories_nodes":[],"categories_segments":[],"categories_sizes":[],"default_left":[0,0,0,0,0,0,0,0,0],"id":53,"left_children":[1,3,-1,5,7,-1,-1,-1,-1],"loss_changes":[2.8847467E1,9.663398E0,0E0,2.5427737E0,9.066599E0,0E0,0E0,0E0,0E0],"parents":[2147483647,0,0,1,1,3,3,4,4],"right_children":[2,4,-1,6,8,-1,-1,-1,-1],"split_conditions":[9.6969694E-2,-3.9517042E-1,-5.2120347E-2,1.8608347E-1,1.4E0,-4.2385142E-2,5.165388E-2,2.373868E-2,-3.0651897E-2],"split_indices":[0,1,0,2,1,0,0,0,0],"split_type":[0,0,0,0,0,0,0,0,0],"sum_hessian":[4.4030243E2,3.548015E2,8.550089E1,3.7127506E1,3.17674E2,3.483758E1,2.2899272E0,2.8420044E2,3.3473587E1],"tree_param":{"num_deleted":"0","num_feature":"3","num_nodes":"9","size_leaf_vector":"1"}},{"base_weights":[1.9654108E-2,5.3055305E-2,-6.4548585E-3,-1.0349115E-1,1.2530659E-1,-6.286846E-4,-1.5792465E-2,1.645703E-2,-2.9022742E-2],"categories":[],"categories_nodes":[],"categories_segments":[],"categories_sizes":[],"default_left":[0,0,0,0,0,0,0,0,0],"id":54,"left_children":[1,-1,3,5,7,-1,-1,-1,-1],"loss_changes":[1.1639725E1,0E0,1.0636866E1,2.5338225E0,5.804794E0,0E0,0E0,0E0,0E0],"parents":[2147483647,0,0,2,2,3,3,4,4],"right_children":[2,-1,4,6,8,-1,-1,-1,-1],"split_conditions":[-4E-1,5.3055305E-2,1.4827393E-1,-3.9517042E-1,8.969697E-1,-6.286846E-4,-1.5792465E-2,1.645703E-2,-2.9022742E-2],"split_indices":[1,0,2,1,0,0,0,0,0],"split_type":[0,0,0,0,0,0,0,0,0],"sum_hessian":[8.7134894E2,4.1425045E1,8.299239E2,4.7806525E2,3.5185864E2,1.7201172E2,3.0605353E2,3.2203372E2,2.982493E1],"tree_param":{"num_deleted":"0","num_feature":"3","num_nodes":"9","size_leaf_vector":"1"}},{"base_weights":[-1.0616248E-2,8.167082E-2,-2.0521021E-1,-5.0570656E-2,1.1937178E-1,-2.8835332E-1,5.189593E-1,-8.047606E-3,1.6406827E-2,-7.846852E-3,-3.2612003E-2,3.1751644E-2,6.493944E-2],"categories":[],"categories_nodes":[],"categories_segments":[],"categories_sizes":[],"default_left":[0,0,0,0,0,0,0,0,0,0,0,0,0],"id":55,"left_children":[1,3,5,-1,7,9,11,-1,-1,-1,-1,-1,-1],"loss_changes":[1.1902868E1,1.0018044E1,1.29864025E1,0E0,3.794796E0,1.49543E0,3.8011742E-1,0E0,0E0,0E0,0E0,0E0,0E0],"parents":[2147483647,0,0,1,1,2,2,4,4,5,5,6,6],"right_children":[2,4,6,-1,8,10,12,-1,-1,-1,-1,-1,-1],"split_conditions":[1.9772927E-1,-4E-1,8.666667E-1,-5.0570656E-2,-1.9653659E-1,-7.2575524E-2,1.1454545E0,-8.047606E-3,1.6406827E-2,-7.846852E-3,-3.2612003E-2,3.1751644E-2,6.493944E-2],"split_indices":[1,1,0,0,0,2,0,0,0,0,0,0,0],"split_type":[0,0,0,0,0,0,0,0,0,0,0,0,0],"sum_hessian":[6.608651E2,4.486643E2,2.1220078E2,2.6312012E1,4.223523E2,1.9088658E2,2.1314198E1,7.704895E1,3.4530334E2,2.9579422E1,1.6130716E2,9.726681E0,1.1587516E1],"tree_param":{"num_deleted":"0","num_feature":"3","num_nodes":"13","size_leaf_vector":"1"}},{"base_weights":[4.635518E-3,1.1918179E-1,-5.067242E-1,5.9773717E-2,6.8052995E-1,-1.5480459E-1,-5.1751133E-2,1.0404025E-2,-3.874969E-2,8.849887E-2,-2.0052532E-2,-3.398054E-2,1.2415265E-2],"categories":[],"categories_nodes":[],"categories_segments":[],"categories_sizes":[],"default_left":[0,0,0,0,0,0,0,0,0,0,0,0,0],"id":56,"left_children":[1,3,5,7,9,11,-1,-1,-1,-1,-1,-1,-1],"loss_changes":[2.5210472E1,1.1684736E1,2.1891022E-1,6.357192E0,6.2216654E0,2.3671845E-1,0E0,0E0,0E0,0E0,0E0,0E0,0E0],"parents":[2147483647,0,0,1,1,2,2,3,3,4,4,5,5],"right_children":[2,4,6,8,10,12,-1,-1,-1,-1,-1,-1,-1],"split_conditions":[9.6969694E-2,4.7216583E-2,1.21212125E-1,1.6E0,6E-1,7.525605E-2,-5.1751133E-2,1.0404025E-2,-3.874969E-2,8.849887E-2,-2.0052532E-2,-3.398054E-2,1.2415265E-2],"split_indices":[0,0,0,1,1,2,0,0,0,0,0,0,0],"split_type":[0,0,0,0,0,0,0,0,0,0,0,0,0],"sum_hessian":[4.283702E2,3.506013E2,7.776892E1,3.1804837E2,3.2552914E1,2.7694411E0,7.499947E1,2.9010406E2,2.7944311E1,2.6417883E1,6.135029E0,1.5339911E0,1.2354501E0],"tree_param":{"num_deleted":"0","num_feature":"3","num_nodes":"13","size_leaf_vector":"1"}},{"base_weights":[2.2830877E-2,5.2653205E-2,-3.0729119E-3,-4.2947005E-2,3.7868658E-1,-8.1703876E-4,-3.867928E-2,5.072636E-2,-1.422288E-2],"categories":[],"categories_nodes":[],"categories_segments":[],"categories_sizes":[],"default_left":[0,0,0,0,0,0,0,0,0],"id":57,"left_children":[1,-1,3,5,7,-1,-1,-1,-1],"loss_changes":[1.11919985E1,0E0,1.2448212E1,8.849858E0,5.251995E0,0E0,0E0,0E0,0E0],"parents":[2147483647,0,0,2,2,3,3,4,4],"right_children":[2,-1,4,6,8,-1,-1,-1,-1],"split_conditions":[-4E-1,5.2653205E-2,1.492822E0,9.789999E-1,6.060606E-3,-8.1703876E-4,-3.867928E-2,5.072636E-2,-1.422288E-2],"split_indices":[1,0,2,2,0,0,0,0,0],"split_type":[0,0,0,0,0,0,0,0,0],"sum_hessian":[8.5664703E2,4.095463E1,8.156924E2,7.393555E2,7.633685E1,6.723752E2,6.698037E1,6.124582E1,1.5091034E1],"tree_param":{"num_deleted":"0","num_feature":"3","num_nodes":"9","size_leaf_vector":"1"}},{"base_weights":[-1.7268742E-3,9.9331E-2,-2.0143208E-1,-5.0157137E-2,1.3636005E-1,-3.0693802E-1,4.3879184E-1,2.941963E-2,1.4308846E-3,-3.4115683E-2,-1.4910365E-2,-1.7514868E-2,5.3154107E-2],"categories":[],"categories_nodes":[],"categories_segments":[],"categories_sizes":[],"default_left":[0,0,0,0,0,0,0,0,0,0,0,0,0],"id":58,"left_children":[1,3,5,-1,7,9,11,-1,-1,-1,-1,-1,-1],"loss_changes":[1.2962826E1,9.558326E0,1.4712374E1,0E0,7.750125E0,9.529934E-1,1.8551841E0,0E0,0E0,0E0,0E0,0E0,0E0],"parents":[2147483647,0,0,1,1,2,2,4,4,5,5,6,6],"right_children":[2,4,6,-1,8,10,12,-1,-1,-1,-1,-1,-1],"split_conditions":[1.6050099E-1,-4E-1,9.1968524E-1,-5.0157137E-2,-2E-1,5.6363636E-1,2.3976582E-1,2.941963E-2,1.4308846E-3,-3.4115683E-2,-1.4910365E-2,-1.7514868E-2,5.3154107E-2],"split_indices":[2,1,0,0,1,0,2,0,0,0,0,0,0],"split_type":[0,0,0,0,0,0,0,0,0,0,0,0,0],"sum_hessian":[6.403118E2,4.2549762E2,2.1481418E2,2.3970024E1,4.0152762E2,1.8486917E2,2.9945005E1,1.7448007E2,2.2704755E2,1.5097585E2,3.389333E1,3.8135204E0,2.6131485E1],"tree_param":{"num_deleted":"0","num_feature":"3","num_nodes":"13","size_leaf_vector":"1"}},{"base_weights":[1.9359078E-2,1.3025689E-1,-5.162087E-2,-1.433378E-1,2.1641414E-1,-2.4154063E-2,4.6607453E-2,1.2458848E-1,1.5304516E-2],"categories":[],"categories_nodes":[],"categories_segments":[],"categories_sizes":[],"default_left":[0,0,0,0,0,0,0,0,0],"id":59,"left_children":[1,3,-1,5,7,-1,-1,-1,-1],"loss_changes":[2.5428831E1,8.3887205E0,0E0,5.2303023E0,1.7425991E1,0E0,0E0,0E0,0E0],"parents":[2147483647,0,0,1,1,3,3,4,4],"right_children":[2,4,-1,6,8,-1,-1,-1,-1],"split_conditions":[1.21212125E-1,-1.6842379E-1,-5.162087E-2,2.3976582E-1,0E0,-2.4154063E-2,4.6607453E-2,1.2458848E-1,1.5304516E-2],"split_indices":[0,1,0,2,1,0,0,0,0],"split_type":[0,0,0,0,0,0,0,0,0],"sum_hessian":[4.2601102E2,3.53558E2,7.245302E1,8.451491E1,2.690431E2,7.330581E1,1.1209103E1,1.4518573E1,2.5452452E2],"tree_param":{"num_deleted":"0","num_feature":"3","num_nodes":"9","size_leaf_vector":"1"}},{"base_weights":[4.979812E-3,5.2218974E-2,-1.93378E-2,2.3839338E-1,-6.510297E-2,4.7388647E-4,3.8703166E-2,-8.5921185E-3,2.1002932E-2],"categories":[],"categories_nodes":[],"categories_segments":[],"categories_sizes":[],"default_left":[0,0,0,0,0,0,0,0,0],"id":60,"left_children":[1,-1,3,5,7,-1,-1,-1,-1],"loss_changes":[1.0926457E1,0E0,9.804634E0,4.351997E0,4.059368E0,0E0,0E0,0E0,0E0],"parents":[2147483647,0,0,2,2,3,3,4,4],"right_children":[2,-1,4,6,8,-1,-1,-1,-1],"split_conditions":[-4E-1,5.2218974E-2,-3.351841E-1,1.7734513E-2,1.492822E0,4.7388647E-4,3.8703166E-2,-8.5921185E-3,2.1002932E-2],"split_indices":[1,0,0,2,2,0,0,0,0],"split_type":[0,0,0,0,0,0,0,0,0],"sum_hessian":[8.6694073E2,3.8011097E1,8.289296E2,1.2436222E2,7.0456744E2,4.8754158E1,7.560806E1,6.5564496E2,4.8922443E1],"tree_param":{"num_deleted":"0","num_feature":"3","num_nodes":"9","size_leaf_vector":"1"}},{"base_weights":[-1.974346E-2,-1.9167835E-1,1.4451501E-1,9.929196E-2,-3.0175307E-1,-4.7448747E-2,1.6590318E-1,2.6870007E-3,7.768547E-2,-2.5034538E-2,-4.0679906E-2,1.3334258E-2,4.8878036E-2],"categories":[],"categories_nodes":[],"categories_segments":[],"categories_sizes":[],"default_left":[0,0,0,0,0,0,0,0,0,0,0,0,0],"id":61,"left_children":[1,3,5,7,9,-1,11,-1,-1,-1,-1,-1,-1],"loss_changes":[1.8460348E1,1.0257145E1,4.5054007E0,4.316695E0,1.150568E0,0E0,3.3403473E0,0E0,0E0,0E0,0E0,0E0,0E0],"parents":[2147483647,0,0,1,1,2,2,3,3,4,4,6,6],"right_children":[2,4,6,8,10,-1,12,-1,-1,-1,-1,-1,-1],"split_conditions":[2.1212122E-1,-2E-1,-4E-1,-3.1436318E-1,6E-1,-4.7448747E-2,1.5818182E0,2.6870007E-3,7.768547E-2,-2.5034538E-2,-4.0679906E-2,1.3334258E-2,4.8878036E-2],"split_indices":[0,1,1,1,1,0,0,0,0,0,0,0,0],"split_type":[0,0,0,0,0,0,0,0,0,0,0,0,0],"sum_hessian":[6.516735E2,3.1831525E2,3.3335828E2,8.73948E1,2.3092046E2,1.0426182E1,3.229321E2,7.989482E1,7.49998E0,1.5731595E2,7.3604515E1,2.9463278E2,2.8299314E1],"tree_param":{"num_deleted":"0","num_feature":"3","num_nodes":"13","size_leaf_vector":"1"}},{"base_weights":[1.4545941E-2,1.1741393E-1,-5.143867E-2,1.6037928E-1,-3.8649035E-1,9.737037E-3,7.420758E-2,-5.25509E-2,2.148949E-2],"categories":[],"categories_nodes":[],"categories_segments":[],"categories_sizes":[],"default_left":[0,0,0,0,0,0,0,0,0],"id":62,"left_children":[1,3,-1,5,7,-1,-1,-1,-1],"loss_changes":[2.324469E1,7.802859E0,0E0,1.2028623E1,2.4859123E0,0E0,0E0,0E0,0E0],"parents":[2147483647,0,0,1,1,3,3,4,4],"right_children":[2,4,-1,6,8,-1,-1,-1,-1],"split_conditions":[1.21212125E-1,1.6E0,-5.143867E-2,1.0307792E0,7.0872226E0,9.737037E-3,7.420758E-2,-5.25509E-2,2.148949E-2],"split_indices":[0,1,0,1,2,0,0,0,0],"split_type":[0,0,0,0,0,0,0,0,0],"sum_hessian":[4.2510168E2,3.5653918E2,6.856251E1,3.291555E2,2.7383682E1,2.980395E2,3.111601E1,2.2344587E1,5.039096E0],"tree_param":{"num_deleted":"0","num_feature":"3","num_nodes":"9","size_leaf_vector":"1"}},{"base_weights":[-8.57922E-3,5.190583E-2,-3.210579E-2,-6.918921E-2,3.0332536E-1,-4.0425253E-3,-3.925108E-2,4.199849E-2,-2.0628488E-3],"categories":[],"categories_nodes":[],"categories_segments":[],"categories_sizes":[],"default_left":[0,0,0,0,0,0,0,0,0],"id":63,"left_children":[1,-1,3,5,7,-1,-1,-1,-1],"loss_changes":[1.0399643E1,0E0,9.992846E0,6.7050114E0,3.031694E0,0E0,0E0,0E0,0E0],"parents":[2147483647,0,0,2,2,3,3,4,4],"right_children":[2,-1,4,6,8,-1,-1,-1,-1],"split_conditions":[-4E-1,5.190583E-2,1.4240966E0,9.789999E-1,6.060606E-3,-4.0425253E-3,-3.925108E-2,4.199849E-2,-2.0628488E-3],"split_indices":[1,0,2,2,0,0,0,0,0],"split_type":[0,0,0,0,0,0,0,0,0],"sum_hessian":[8.3542633E2,3.4761307E1,8.00665E2,7.216744E2,7.899062E1,6.6374963E2,5.792475E1,5.7858624E1,2.1132004E1],"tree_param":{"num_deleted":"0","num_feature":"3","num_nodes":"9","size_leaf_vector":"1"}},{"base_weights":[-1.0514818E-2,7.38304E-2,-1.9009167E-1,-4.949754E-2,1.03449956E-1,-2.8774112E-1,2.832471E-1,1.7866543E-2,-1.1391003E-3,-2.9549016E-2,2.7212132E-2,1.5015838E-2,4.740129E-2],"categories":[],"categories_nodes":[],"categories_segments":[],"categories_sizes":[],"default_left":[0,0,0,0,0,0,0,0,0,0,0,0,0],"id":64,"left_children":[1,3,5,-1,7,9,11,-1,-1,-1,-1,-1,-1],"loss_changes":[9.669959E0,7.3713675E0,9.511373E0,0E0,3.5764513E0,8.1629086E-1,8.274431E-1,0E0,0E0,0E0,0E0,0E0,0E0],"parents":[2147483647,0,0,1,1,2,2,4,4,5,5,6,6],"right_children":[2,4,6,-1,8,10,12,-1,-1,-1,-1,-1,-1],"split_conditions":[1.7341447E-1,-4E-1,7.151515E-1,-4.949754E-2,-9.7774535E-2,2.8251745E1,1.1454545E0,1.7866543E-2,-1.1391003E-3,-2.9549016E-2,2.7212132E-2,1.5015838E-2,4.740129E-2],"split_indices":[1,1,0,0,2,2,0,0,0,0,0,0,0],"split_type":[0,0,0,0,0,0,0,0,0,0,0,0,0],"sum_hessian":[6.365042E2,4.3348843E2,2.0301576E2,2.067823E1,4.1281018E2,1.6862138E2,3.4394375E1,2.4910335E2,1.6370685E2,1.6678513E2,1.8362486E0,2.131264E1,1.3081736E1],"tree_param":{"num_deleted":"0","num_feature":"3","num_nodes":"13","size_leaf_vector":"1"}},{"base_weights":[1.6470574E-3,9.6453175E-2,-5.144654E-2,4.9709927E-2,5.265171E-1,-2.0772465E-2,1.227689E-2,7.1427286E-2,-2.436705E-2],"categories":[],"categories_nodes":[],"categories_segments":[],"categories_sizes":[],"default_left":[0,0,0,0,0,0,0,0,0],"id":65,"left_children":[1,3,-1,5,7,-1,-1,-1,-1],"loss_changes":[2.0897608E1,7.22672E0,0E0,6.166815E0,5.2737303E0,0E0,0E0,0E0,0E0],"parents":[2147483647,0,0,1,1,3,3,4,4],"right_children":[2,4,-1,6,8,-1,-1,-1,-1],"split_conditions":[9.6969694E-2,4.7216583E-2,-5.144654E-2,-1.6842379E-1,6E-1,-2.0772465E-2,1.227689E-2,7.1427286E-2,-2.436705E-2],"split_indices":[0,0,0,1,1,0,0,0,0],"split_type":[0,0,0,0,0,0,0,0,0],"sum_hessian":[4.2507245E2,3.59794E2,6.527844E1,3.2552823E2,3.4265774E1,7.155387E1,2.5397437E2,2.7608093E1,6.6576805E0],"tree_param":{"num_deleted":"0","num_feature":"3","num_nodes":"9","size_leaf_vector":"1"}},{"base_weights":[3.1508688E-2,5.145178E-2,1.2251235E-2,-1.1104281E-2,3.2615405E-1,1.5546898E-3,-4.0985283E-2,4.4182025E-2,-2.0030005E-2],"categories":[],"categories_nodes":[],"categories_segments":[],"categories_sizes":[],"default_left":[0,0,0,0,0,0,0,0,0],"id":66,"left_children":[1,-1,3,5,7,-1,-1,-1,-1],"loss_changes":[7.894501E0,0E0,5.999697E0,8.106314E0,3.5393662E0,0E0,0E0,0E0,0E0],"parents":[2147483647,0,0,2,2,3,3,4,4],"right_children":[2,-1,4,6,8,-1,-1,-1,-1],"split_conditions":[-4E-1,5.145178E-2,1.6E0,1.0307792E0,6.060606E-3,1.5546898E-3,-4.0985283E-2,4.4182025E-2,-2.0030005E-2],"split_indices":[1,0,1,1,0,0,0,0,0],"split_type":[0,0,0,0,0,0,0,0,0],"sum_hessian":[8.484095E2,3.1542904E1,8.168666E2,7.611955E2,5.5671097E1,7.144076E2,4.678789E1,4.5774773E1,9.896322E0],"tree_param":{"num_deleted":"0","num_feature":"3","num_nodes":"9","size_leaf_vector":"1"}},{"base_weights":[-2.3267614E-2,-1.4343001E-1,9.09043E-2,-7.176565E-2,-3.7565804E-1,-4.7262475E-2,1.1150163E-1,-4.6703458E-2,-5.4026395E-3,1.5224725E-2,-3.978438E-2,7.048312E-3,3.661407E-2],"categories":[],"categories_nodes":[],"categories_segments":[],"categories_sizes":[],"default_left":[0,0,0,0,0,0,0,0,0,0,0,0,0],"id":67,"left_children":[1,3,5,7,9,-1,11,-1,-1,-1,-1,-1,-1],"loss_changes":[8.79429E0,5.169526E0,3.8694823E0,1.6565069E0,9.2019844E-1,0E0,3.2961278E0,0E0,0E0,0E0,0E0,0E0,0E0],"parents":[2147483647,0,0,1,1,2,2,3,3,4,4,6,6],"right_children":[2,4,6,8,10,-1,12,-1,-1,-1,-1,-1,-1],"split_conditions":[2.1212122E-1,4.4138288E-1,-4E-1,-4E-1,-4.31329E-1,-4.7262475E-2,1.4006748E0,-4.6703458E-2,-5.4026395E-3,1.5224725E-2,-3.978438E-2,7.048312E-3,3.661407E-2],"split_indices":[0,1,1,1,0,0,0,0,0,0,0,0,0],"split_type":[0,0,0,0,0,0,0,0,0,0,0,0,0],"sum_hessian":[6.3907153E2,3.1124234E2,3.278292E2,2.3884503E2,7.2397316E1,1.0785984E1,3.170432E2,9.170852E0,2.2967418E2,2.6834238E0,6.971389E1,2.741574E2,4.2885815E1],"tree_param":{"num_deleted":"0","num_feature":"3","num_nodes":"13","size_leaf_vector":"1"}},{"base_weights":[1.563043E-2,1.173757E-1,-4.939165E-1,6.396183E-2,6.3864636E-1,-2.779385E-1,-5.118943E-2,-2.2094565E-2,1.4676998E-2,-3.553873E-2,8.0965884E-2,1.4735734E-3,-5.0079938E-2],"categories":[],"categories_nodes":[],"categories_segments":[],"categories_sizes":[],"default_left":[0,0,0,0,0,0,0,0,0,0,0,0,0],"id":68,"left_children":[1,3,5,7,9,11,-1,-1,-1,-1,-1,-1,-1],"loss_changes":[2.208976E1,9.844532E0,1.3311005E-1,7.656428E0,5.8783913E0,5.0557303E-1,0E0,0E0,0E0,0E0,0E0,0E0,0E0],"parents":[2147483647,0,0,1,1,2,2,3,3,4,4,5,5],"right_children":[2,4,6,8,10,12,-1,-1,-1,-1,-1,-1,-1],"split_conditions":[9.090909E-2,4.7216583E-2,1.21212125E-1,-1.6842379E-1,-1.6553903E-1,3.0429447E-1,-5.118943E-2,-2.2094565E-2,1.4676998E-2,-3.553873E-2,8.0965884E-2,1.4735734E-3,-5.0079938E-2],"split_indices":[0,0,0,1,2,2,0,0,0,0,0,0,0],"split_type":[0,0,0,0,0,0,0,0,0,0,0,0,0],"sum_hessian":[4.2396313E2,3.54039E2,6.9924126E1,3.221513E2,3.1887686E1,6.638001E0,6.3286125E1,7.217158E1,2.4997974E2,4.52241E0,2.7365276E1,3.273251E0,3.3647497E0],"tree_param":{"num_deleted":"0","num_feature":"3","num_nodes":"13","size_leaf_vector":"1"}},{"base_weights":[-1.0479009E-3,5.108843E-2,-2.0323267E-2,-1.06341474E-1,1.1394456E-1,1.2355801E-2,-1.2611903E-2,1.6299298E-2,-4.1263226E-2],"categories":[],"categories_nodes":[],"categories_segments":[],"categories_sizes":[],"default_left":[0,0,0,0,0,0,0,0,0],"id":69,"left_children":[1,-1,3,5,7,-1,-1,-1,-1],"loss_changes":[8.320797E0,0E0,9.397078E0,2.2699223E0,8.274941E0,0E0,0E0,0E0,0E0],"parents":[2147483647,0,0,2,2,3,3,4,4],"right_children":[2,-1,4,6,8,-1,-1,-1,-1],"split_conditions":[-4E-1,5.108843E-2,1.7469712E-1,-3.6969697E-1,8.969697E-1,1.2355801E-2,-1.2611903E-2,1.6299298E-2,-4.1263226E-2],"split_indices":[1,0,2,0,0,0,0,0,0],"split_type":[0,0,0,0,0,0,0,0,0],"sum_hessian":[8.4118524E2,2.9597744E1,8.115875E2,4.9480222E2,3.167853E2,3.8778908E1,4.5602332E2,2.9042398E2,2.6361313E1],"tree_param":{"num_deleted":"0","num_feature":"3","num_nodes":"9","size_leaf_vector":"1"}},{"base_weights":[-2.2157396E-3,9.040562E-2,-2.1289627E-1,-4.871465E-2,1.14390954E-1,-3.29235E-1,2.6725718E-1,-5.30963E-3,1.7671663E-2,3.1541597E-2,-3.44165E-2,7.409672E-2,1.06983585E-2],"categories":[],"categories_nodes":[],"categories_segments":[],"categories_sizes":[],"default_left":[0,0,0,0,0,0,0,0,0,0,0,0,0],"id":70,"left_children":[1,3,5,-1,7,9,11,-1,-1,-1,-1,-1,-1],"loss_changes":[1.2641688E1,6.2897987E0,1.1139026E1,0E0,4.5282063E0,1.6455727E0,2.8921294E0,0E0,0E0,0E0,0E0,0E0,0E0],"parents":[2147483647,0,0,1,1,2,2,4,4,5,5,6,6],"right_children":[2,4,6,-1,8,10,12,-1,-1,-1,-1,-1,-1],"split_conditions":[1.9772927E-1,-4E-1,6.606061E-1,-4.871465E-2,-7.272727E-2,-4.31329E-1,-7.2575524E-2,-5.30963E-3,1.7671663E-2,3.1541597E-2,-3.44165E-2,7.409672E-2,1.06983585E-2],"split_indices":[1,1,0,0,0,0,2,0,0,0,0,0,0],"split_type":[0,0,0,0,0,0,0,0,0,0,0,0,0],"sum_hessian":[6.4585626E2,4.490233E2,1.9683296E2,1.7134111E1,4.3188916E2,1.5869604E2,3.8136917E1,1.1716926E2,3.147199E2,3.1366105E0,1.5555943E2,8.725222E0,2.9411694E1],"tree_param":{"num_deleted":"0","num_feature":"3","num_nodes":"13","size_leaf_vector":"1"}},{"base_weights":[-2.6649716E-3,8.7473E-2,-5.0170076E-1,4.0278055E-2,5.7860875E-1,-5.159657E-2,-2.1561612E-1,8.416596E-3,-3.2326985E-2,-4.660087E-2,7.153235E-2,2.0620322E-2,-3.9302018E-2],"categories":[],"categories_nodes":[],"categories_segments":[],"categories_sizes":[],"default_left":[0,0,0,0,0,0,0,0,0,0,0,0,0],"id":71,"left_children":[1,3,5,7,9,-1,11,-1,-1,-1,-1,-1,-1],"loss_changes":[1.8844479E1,8.202166E0,1.5030861E-1,5.209979E0,4.765725E0,0E0,4.3738657E-1,0E0,0E0,0E0,0E0,0E0,0E0],"parents":[2147483647,0,0,1,1,2,2,3,3,4,4,6,6],"right_children":[2,4,6,8,10,-1,12,-1,-1,-1,-1,-1,-1],"split_conditions":[9.090909E-2,4.7216583E-2,9.709308E-1,1.4240966E0,-2.9322663E-1,-5.159657E-2,5.304729E-1,8.416596E-3,-3.2326985E-2,-4.660087E-2,7.153235E-2,2.0620322E-2,-3.9302018E-2],"split_indices":[0,0,1,2,2,0,2,0,0,0,0,0,0],"split_type":[0,0,0,0,0,0,0,0,0,0,0,0,0],"sum_hessian":[4.1695746E2,3.5386548E2,6.3091976E1,3.238296E2,3.00359E1,5.933008E1,3.761898E0,2.896332E2,3.419635E1,3.197284E0,2.6838617E1,1.065674E0,2.696224E0],"tree_param":{"num_deleted":"0","num_feature":"3","num_nodes":"13","size_leaf_vector":"1"}},{"base_weights":[-8.604795E-3,5.072098E-2,-2.6732702E-2,-6.539693E-2,1.07035086E-1,-4.2604967E-3,-9.584745E-2,3.394876E-2,-9.460343E-3],"categories":[],"categories_nodes":[],"categories_segments":[],"categories_sizes":[],"default_left":[0,0,0,0,0,0,0,0,0],"id":72,"left_children":[1,-1,3,5,7,-1,-1,-1,-1],"loss_changes":[7.7794952E0,0E0,4.1615725E0,1.2656201E1,8.492268E0,0E0,0E0,0E0,0E0],"parents":[2147483647,0,0,2,2,3,3,4,4],"right_children":[2,-1,4,6,8,-1,-1,-1,-1],"split_conditions":[-4E-1,5.072098E-2,6E-1,4.4138288E-1,9.789999E-1,-4.2604967E-3,-9.584745E-2,3.394876E-2,-9.460343E-3],"split_indices":[1,0,1,1,2,0,0,0,0],"split_type":[0,0,0,0,0,0,0,0,0],"sum_hessian":[8.2952466E2,2.724725E1,8.022774E2,6.227802E2,1.7949718E2,6.083036E2,1.4476624E1,8.306022E1,9.6436966E1],"tree_param":{"num_deleted":"0","num_feature":"3","num_nodes":"9","size_leaf_vector":"1"}},{"base_weights":[-2.0315314E-2,-2.103027E-1,4.1178726E-2,-1.3153496E-1,-3.949672E-1,-7.355574E-3,2.1301214E-1,-1.8037027E-2,5.2294105E-2,-4.946547E-2,-1.779939E-2,6.032865E-3,-1.8140603E-2,1.1295594E-2,5.1644243E-2],"categories":[],"categories_nodes":[],"categories_segments":[],"categories_sizes":[],"default_left":[0,0,0,0,0,0,0,0,0,0,0,0,0,0,0],"id":73,"left_children":[1,3,5,7,9,11,13,-1,-1,-1,-1,-1,-1,-1,-1],"loss_changes":[7.272947E0,2.1619663E0,3.9260538E0,3.5523794E0,8.85519E-1,4.344968E0,3.0891962E0,0E0,0E0,0E0,0E0,0E0,0E0,0E0,0E0],"parents":[2147483647,0,0,1,1,2,2,3,3,4,4,5,5,6,6],"right_children":[2,4,6,8,10,12,14,-1,-1,-1,-1,-1,-1,-1,-1],"split_conditions":[-1.9653659E-1,4.4138288E-1,9.1968524E-1,5.304729E-1,2E0,1.7341447E-1,2.3976582E-1,-1.8037027E-2,5.2294105E-2,-4.946547E-2,-1.779939E-2,6.032865E-3,-1.8140603E-2,1.1295594E-2,5.1644243E-2],"split_indices":[0,1,0,2,1,1,2,0,0,0,0,0,0,0,0],"split_type":[0,0,0,0,0,0,0,0,0,0,0,0,0,0,0],"sum_hessian":[6.207778E2,1.5120529E2,4.6957245E2,1.0719436E2,4.4010933E1,3.668991E2,1.02673355E2,1.0042529E2,6.7690673E0,2.9279016E1,1.4731918E1,2.6464005E2,1.0225905E2,7.824448E1,2.4428873E1],"tree_param":{"num_deleted":"0","num_feature":"3","num_nodes":"15","size_leaf_vector":"1"}},{"base_weights":[7.2301604E-4,8.353532E-2,-5.10476E-2,-1.6749318E-1,1.5536217E-1,1.3519133E-2,-3.9393183E-2,1.4435763E-2,1.4560483E-1],"categories":[],"categories_nodes":[],"categories_segments":[],"categories_sizes":[],"default_left":[0,0,0,0,0,0,0,0,0],"id":74,"left_children":[1,3,-1,5,7,-1,-1,-1,-1],"loss_changes":[1.7711252E1,6.5177526E0,0E0,5.576212E0,3.8041492E0,0E0,0E0,0E0,0E0],"parents":[2147483647,0,0,1,1,3,3,4,4],"right_children":[2,4,-1,6,8,-1,-1,-1,-1],"split_conditions":[9.6969694E-2,-3.351841E-1,-5.10476E-2,4.6834927E-2,1.1277174E1,1.3519133E-2,-3.9393183E-2,1.4435763E-2,1.4560483E-1],"split_indices":[0,0,0,2,2,0,0,0,0],"split_type":[0,0,0,0,0,0,0,0,0],"sum_hessian":[4.163664E2,3.590399E2,5.732651E1,7.958065E1,2.7945923E2,3.4229046E1,4.53516E1,2.7821634E2,1.2428823E0],"tree_param":{"num_deleted":"0","num_feature":"3","num_nodes":"9","size_leaf_vector":"1"}},{"base_weights":[1.893167E-2,5.0563525E-2,2.220587E-3,-1.8953508E-2,3.420748E-1,8.310084E-5,-2.9990936E-2,4.5832247E-2,-1.9111536E-2],"categories":[],"categories_nodes":[],"categories_segments":[],"categories_sizes":[],"default_left":[0,0,0,0,0,0,0,0,0],"id":75,"left_children":[1,-1,3,5,7,-1,-1,-1,-1],"loss_changes":[6.7096853E0,0E0,5.7541075E0,4.1848364E0,2.9943395E0,0E0,0E0,0E0,0E0],"parents":[2147483647,0,0,2,2,3,3,4,4],"right_children":[2,-1,4,6,8,-1,-1,-1,-1],"split_conditions":[-4E-1,5.0563525E-2,1.8E0,1.0307792E0,6.060606E-3,8.310084E-5,-2.9990936E-2,4.5832247E-2,-1.9111536E-2],"split_indices":[1,0,1,1,0,0,0,0,0],"split_type":[0,0,0,0,0,0,0,0,0],"sum_hessian":[8.240982E2,2.6385103E1,7.977131E2,7.518165E2,4.589654E1,7.0328894E2,4.8527584E1,3.7796463E1,8.100079E0],"tree_param":{"num_deleted":"0","num_feature":"3","num_nodes":"9","size_leaf_vector":"1"}},{"base_weights":[-1.948834E-2,7.37712E-2,-1.37395E-1,-4.8141833E-2,1.0074441E-1,-2.3281734E-1,1.6160733E-1,1.3378433E-2,-1.1535678E-2,-1.3095453E-2,-3.0280784E-2,3.906119E-4,2.5625167E-2],"categories":[],"categories_nodes":[],"categories_segments":[],"categories_sizes":[],"default_left":[0,0,0,0,0,0,0,0,0,0,0,0,0],"id":76,"left_children":[1,3,5,-1,7,9,11,-1,-1,-1,-1,-1,-1],"loss_changes":[6.736331E0,5.173009E0,7.755409E0,0E0,2.3514194E0,1.4252205E0,9.845598E-1,0E0,0E0,0E0,0E0,0E0,0E0],"parents":[2147483647,0,0,1,1,2,2,4,4,5,5,6,6],"right_children":[2,4,6,-1,8,10,12,-1,-1,-1,-1,-1,-1],"split_conditions":[-1.4113749E-2,-4E-1,6.121212E-1,-4.8141833E-2,1.6414993E-1,1.4827393E-1,2.2582715E-2,1.3378433E-2,-1.1535678E-2,-1.3095453E-2,-3.0280784E-2,3.906119E-4,2.5625167E-2],"split_indices":[1,1,0,0,2,2,1,0,0,0,0,0,0],"split_type":[0,0,0,0,0,0,0,0,0,0,0,0,0],"sum_hessian":[6.106991E2,3.4119867E2,2.6950046E2,1.5028064E1,3.2617062E2,2.0446857E2,6.503188E1,2.8324582E2,4.29248E1,8.444298E1,1.2002559E2,2.4781298E1,4.0250584E1],"tree_param":{"num_deleted":"0","num_feature":"3","num_nodes":"13","size_leaf_vector":"1"}},{"base_weights":[2.9328007E-2,1.11303866E-1,-5.093057E-2,-2.4309985E-1,1.628735E-1,-5.167085E-2,-6.3410276E-3,3.724314E-2,4.3964735E-3],"categories":[],"categories_nodes":[],"categories_segments":[],"categories_sizes":[],"default_left":[0,0,0,0,0,0,0,0,0],"id":77,"left_children":[1,3,-1,5,7,-1,-1,-1,-1],"loss_changes":[1.8323906E1,6.6169567E0,0E0,2.2345066E0,7.827037E0,0E0,0E0,0E0,0E0],"parents":[2147483647,0,0,1,1,3,3,4,4],"right_children":[2,4,-1,6,8,-1,-1,-1,-1],"split_conditions":[9.6969694E-2,-2.5966176E-1,-5.093057E-2,-2.6853418E-1,7.951195E-2,-5.167085E-2,-6.3410276E-3,3.724314E-2,4.3964735E-3],"split_indices":[0,2,0,1,2,0,0,0,0],"split_type":[0,0,0,0,0,0,0,0,0],"sum_hessian":[4.1270703E2,3.5888144E2,5.3825603E1,4.5115902E1,3.1376553E2,1.7140676E1,2.7975225E1,1.12814964E2,2.0095058E2],"tree_param":{"num_deleted":"0","num_feature":"3","num_nodes":"9","size_leaf_vector":"1"}},{"base_weights":[1.8609382E-2,5.007233E-2,4.10727E-3,-3.641031E-2,1.3894871E-1,-1.9666278E-3,-8.795985E-2,3.2711297E-2,-4.071485E-3],"categories":[],"categories_nodes":[],"categories_segments":[],"categories_sizes":[],"default_left":[0,0,0,0,0,0,0,0,0],"id":78,"left_children":[1,-1,3,5,7,-1,-1,-1,-1],"loss_changes":[5.707258E0,0E0,4.3416743E0,8.611042E0,6.2204065E0,0E0,0E0,0E0,0E0],"parents":[2147483647,0,0,2,2,3,3,4,4],"right_children":[2,-1,4,6,8,-1,-1,-1,-1],"split_conditions":[-4E-1,5.007233E-2,6E-1,4.4138288E-1,9.789999E-1,-1.9666278E-3,-8.795985E-2,3.2711297E-2,-4.071485E-3],"split_indices":[1,0,1,1,2,0,0,0,0],"split_type":[0,0,0,0,0,0,0,0,0],"sum_hessian":[8.1558813E2,2.283762E1,7.927505E2,6.101428E2,1.8260765E2,5.992659E2,1.08769E1,8.879288E1,9.381477E1],"tree_param":{"num_deleted":"0","num_feature":"3","num_nodes":"9","size_leaf_vector":"1"}},{"base_weights":[-1.8555654E-2,3.2713894E-2,-2.0934433E-1,-4.772712E-2,4.8563726E-2,-2.7595568E-1,3.7987462E-1,-2.3157002E-2,7.062731E-3,-1.1066161E-2,-3.2041468E-2,-1.0562188E-3,4.7403954E-2],"categories":[],"categories_nodes":[],"categories_segments":[],"categories_sizes":[],"default_left":[0,0,0,0,0,0,0,0,0,0,0,0,0],"id":79,"left_children":[1,3,5,-1,7,9,11,-1,-1,-1,-1,-1,-1],"loss_changes":[5.9887156E0,3.9263544E0,5.193943E0,0E0,2.916545E0,8.248882E-1,5.0466454E-1,0E0,0E0,0E0,0E0,0E0,0E0],"parents":[2147483647,0,0,1,1,2,2,4,4,5,5,6,6],"right_children":[2,4,6,-1,8,10,12,-1,-1,-1,-1,-1,-1],"split_conditions":[3.660649E-1,-4E-1,8.484849E-1,-4.772712E-2,-3.5757574E-1,1.4061329E-1,2.3185337E-1,-2.3157002E-2,7.062731E-3,-1.1066161E-2,-3.2041468E-2,-1.0562188E-3,4.7403954E-2],"split_indices":[1,1,0,0,0,2,2,0,0,0,0,0,0],"split_type":[0,0,0,0,0,0,0,0,0,0,0,0,0],"sum_hessian":[6.1053973E2,4.818764E2,1.2866335E2,1.3647325E1,4.6822906E2,1.1607293E2,1.2590417E1,3.349237E1,4.347367E2,2.5342197E1,9.073073E1,2.6190133E0,9.971404E0],"tree_param":{"num_deleted":"0","num_feature":"3","num_nodes":"13","size_leaf_vector":"1"}},{"base_weights":[1.486071E-2,9.429163E-2,-4.815468E-1,4.668697E-2,5.6578124E-1,-2.187384E-1,-5.0590087E-2,8.139186E-3,-2.9423017E-2,-3.0257711E-2,6.946983E-2,5.909703E-3,-4.6047434E-2],"categories":[],"categories_nodes":[],"categories_segments":[],"categories_sizes":[],"default_left":[0,0,0,0,0,0,0,0,0,0,0,0,0],"id":80,"left_children":[1,3,5,7,9,11,-1,-1,-1,-1,-1,-1,-1],"loss_changes":[1.6018257E1,7.8305097E0,2.4803543E-1,3.7986488E0,3.7938452E0,4.6475282E-1,0E0,0E0,0E0,0E0,0E0,0E0,0E0],"parents":[2147483647,0,0,1,1,2,2,3,3,4,4,5,5],"right_children":[2,4,6,8,10,12,-1,-1,-1,-1,-1,-1,-1],"split_conditions":[9.090909E-2,4.7216583E-2,1.21212125E-1,1.4E0,-1.6553903E-1,3.0429447E-1,-5.0590087E-2,8.139186E-3,-2.9423017E-2,-3.0257711E-2,6.946983E-2,5.909703E-3,-4.6047434E-2],"split_indices":[0,0,0,1,2,2,0,0,0,0,0,0,0],"split_type":[0,0,0,0,0,0,0,0,0,0,0,0,0],"sum_hessian":[4.0409283E2,3.4905075E2,5.5042088E1,3.180385E2,3.1012218E1,5.51462E0,4.952747E1,2.8934488E2,2.8693645E1,3.834792E0,2.7177427E1,2.917252E0,2.5973675E0],"tree_param":{"num_deleted":"0","num_feature":"3","num_nodes":"13","size_leaf_vector":"1"}},{"base_weights":[-1.1221185E-4,-2.6596785E-2,2.987202E-1,4.9839288E-2,-4.3385148E-2,3.5427472E-1,-3.02656E-1,-1.7160763E-3,-3.2204375E-2,4.320119E-2,1.0760602E-3,4.258425E-2,-1.2947305E-1],"categories":[],"categories_nodes":[],"categories_segments":[],"categories_sizes":[],"default_left":[0,0,0,0,0,0,0,0,0,0,0,0,0],"id":81,"left_children":[1,3,5,-1,7,9,11,-1,-1,-1,-1,-1,-1],"loss_changes":[6.4324656E0,6.6017556E0,2.3178158E0,0E0,5.287871E0,1.6251493E0,4.9851513E0,0E0,0E0,0E0,0E0,0E0,0E0],"parents":[2147483647,0,0,1,1,2,2,4,4,5,5,6,6],"right_children":[2,4,6,-1,8,10,12,-1,-1,-1,-1,-1,-1],"split_conditions":[1.492822E0,-4E-1,1.1277174E1,4.9839288E-2,9.789999E-1,6.512808E-2,-2.8779122E-1,-1.7160763E-3,-3.2204375E-2,4.320119E-2,1.0760602E-3,4.258425E-2,-1.2947305E-1],"split_indices":[2,1,2,0,2,0,0,0,0,0,0,0,0],"split_type":[0,0,0,0,0,0,0,0,0,0,0,0,0],"sum_hessian":[8.107457E2,7.455785E2,6.516727E1,2.2214705E1,7.233638E2,6.0032425E1,5.13484E0,6.621142E2,6.124957E1,4.8744038E1,1.1288388E1,3.2898202E0,1.8450197E0],"tree_param":{"num_deleted":"0","num_feature":"3","num_nodes":"13","size_leaf_vector":"1"}},{"base_weights":[-8.892631E-3,-1.0844079E-1,1.171297E-1,1.4534768E-1,-1.5825687E-1,-4.3544162E-2,1.3078523E-1,-4.1026324E-2,2.4835292E-2,-8.754277E-3,-2.3707699E-2,4.7450837E-2,1.0876008E-2],"categories":[],"categories_nodes":[],"categories_segments":[],"categories_sizes":[],"default_left":[0,0,0,0,0,0,0,0,0,0,0,0,0],"id":82,"left_children":[1,3,5,7,9,-1,11,-1,-1,-1,-1,-1,-1],"loss_changes":[7.7248583E0,4.3716884E0,2.107696E0,3.3617625E0,1.5845075E0,0E0,1.9621062E0,0E0,0E0,0E0,0E0,0E0,0E0],"parents":[2147483647,0,0,1,1,2,2,3,3,4,4,6,6],"right_children":[2,4,6,8,10,-1,12,-1,-1,-1,-1,-1,-1],"split_conditions":[4.2424244E-1,-3.2225066E-1,-4E-1,-4.7746986E-1,8.9141235E-2,-4.3544162E-2,5.5151516E-1,-4.1026324E-2,2.4835292E-2,-8.754277E-3,-2.3707699E-2,4.7450837E-2,1.0876008E-2],"split_indices":[0,2,1,2,1,0,0,0,0,0,0,0,0],"split_type":[0,0,0,0,0,0,0,0,0,0,0,0,0],"sum_hessian":[6.137452E2,3.4296677E2,2.7077844E2,5.5960068E1,2.870067E2,5.785379E0,2.6499304E2,8.285436E0,4.7674633E1,1.5239496E2,1.3461174E2,1.4720579E1,2.5027248E2],"tree_param":{"num_deleted":"0","num_feature":"3","num_nodes":"13","size_leaf_vector":"1"}},{"base_weights":[-1.1260666E-2,5.267493E-2,-5.0430547E-2,1.4119506E-2,3.5655558E-1,-2.2034585E-2,8.576266E-3,5.0775636E-2,-1.2209978E-2],"categories":[],"categories_nodes":[],"categories_segments":[],"categories_sizes":[],"default_left":[0,0,0,0,0,0,0,0,0],"id":83,"left_children":[1,3,-1,5,7,-1,-1,-1,-1],"loss_changes":[1.300063E1,4.27414E0,0E0,5.4807673E0,3.0351596E0,0E0,0E0,0E0,0E0],"parents":[2147483647,0,0,1,1,3,3,4,4],"right_children":[2,4,-1,6,8,-1,-1,-1,-1],"split_conditions":[1.21212125E-1,4.2313334E-2,-5.0430547E-2,-1.6842379E-1,6E-1,-2.2034585E-2,8.576266E-3,5.0775636E-2,-1.2209978E-2],"split_indices":[0,0,0,1,1,0,0,0,0],"split_type":[0,0,0,0,0,0,0,0,0],"sum_hessian":[4.1057315E2,3.6423422E2,4.633892E1,3.2415317E2,4.0081074E1,7.538062E1,2.4877254E2,3.0413168E1,9.667905E0],"tree_param":{"num_deleted":"0","num_feature":"3","num_nodes":"9","size_leaf_vector":"1"}},{"base_weights":[-8.377527E-3,-8.637785E-2,1.13834366E-1,4.943805E-2,-1.1164633E-1,1.356776E-1,-5.874714E-2,-3.8691075E-3,-2.1796403E-2,3.234903E-2,9.253468E-3],"categories":[],"categories_nodes":[],"categories_segments":[],"categories_sizes":[],"default_left":[0,0,0,0,0,0,0,0,0,0,0],"id":84,"left_children":[1,3,5,-1,7,9,-1,-1,-1,-1,-1],"loss_changes":[7.6582885E0,7.2507668E0,4.874756E0,0E0,3.642549E0,2.4363518E0,0E0,0E0,0E0,0E0,0E0],"parents":[2147483647,0,0,1,1,2,2,4,4,5,5],"right_children":[2,4,6,-1,8,10,-1,-1,-1,-1,-1],"split_conditions":[1.6414993E-1,-4E-1,1.3151516E0,4.943805E-2,-1.6842379E-1,-3.3939394E-1,-5.874714E-2,-3.8691075E-3,-2.1796403E-2,3.234903E-2,9.253468E-3],"split_indices":[2,1,0,0,1,0,0,0,0,0,0],"split_type":[0,0,0,0,0,0,0,0,0,0,0],"sum_hessian":[8.0135E2,4.8933246E2,3.1201755E2,1.9628798E1,4.6970367E2,3.03375E2,8.642542E0,2.793663E2,1.9033737E2,5.545714E1,2.4791785E2],"tree_param":{"num_deleted":"0","num_feature":"3","num_nodes":"11","size_leaf_vector":"1"}},{"base_weights":[-1.8184539E-2,-1.2226832E-1,6.702147E-2,-7.173225E-2,-3.0607045E-1,3.128698E-2,2.8280935E-1,-9.29046E-3,4.8690062E-2,1.3993281E-2,-3.2942846E-2,-5.055931E-2,5.2701347E-3,1.6795974E-2,5.525425E-2],"categories":[],"categories_nodes":[],"categories_segments":[],"categories_sizes":[],"default_left":[0,0,0,0,0,0,0,0,0,0,0,0,0,0,0],"id":85,"left_children":[1,3,5,7,9,11,13,-1,-1,-1,-1,-1,-1,-1,-1],"loss_changes":[5.364029E0,2.5063777E0,2.5567482E0,2.5858216E0,6.544347E-1,3.3213305E0,1.3677037E0,0E0,0E0,0E0,0E0,0E0,0E0,0E0,0E0],"parents":[2147483647,0,0,1,1,2,2,3,3,4,4,5,5,6,6],"right_children":[2,4,6,8,10,12,14,-1,-1,-1,-1,-1,-1,-1,-1],"split_conditions":[2.1212122E-1,4.4138288E-1,1.3636364E0,1.0038961E0,-1.3384865E-1,-4.5289677E-1,2.6824078E-2,-9.29046E-3,4.8690062E-2,1.3993281E-2,-3.2942846E-2,-5.055931E-2,5.2701347E-3,1.6795974E-2,5.525425E-2],"split_indices":[0,1,0,2,2,2,2,0,0,0,0,0,0,0,0],"split_type":[0,0,0,0,0,0,0,0,0,0,0,0,0,0,0],"sum_hessian":[6.0291235E2,2.711963E2,3.3171603E2,2.1380208E2,5.739423E1,2.8557053E2,4.6145508E1,2.0679807E2,7.0040126E0,2.6078854E0,5.4786343E1,1.0086313E1,2.7548422E2,3.3502975E1,1.2642532E1],"tree_param":{"num_deleted":"0","num_feature":"3","num_nodes":"15","size_leaf_vector":"1"}},{"base_weights":[-5.3739105E-3,5.9502497E-2,-5.034211E-2,-3.0708936E-1,9.502659E-2,-5.439052E-2,1.8624319E-3,3.9210236E-3,3.4229346E-2],"categories":[],"categories_nodes":[],"categories_segments":[],"categories_sizes":[],"default_left":[0,0,0,0,0,0,0,0,0],"id":86,"left_children":[1,3,-1,5,7,-1,-1,-1,-1],"loss_changes":[1.3022497E1,4.6738434E0,0E0,2.4586968E0,4.4846473E0,0E0,0E0,0E0,0E0],"parents":[2147483647,0,0,1,1,3,3,4,4],"right_children":[2,4,-1,6,8,-1,-1,-1,-1],"split_conditions":[1.21212125E-1,-3.170462E-1,-5.034211E-2,-1.3025448E-1,-3.307576E-2,-5.439052E-2,1.8624319E-3,3.9210236E-3,3.4229346E-2],"split_indices":[0,2,0,0,0,0,0,0,0],"split_type":[0,0,0,0,0,0,0,0,0],"sum_hessian":[4.011026E2,3.5565497E2,4.5447647E1,3.0744257E1,3.249107E2,1.7413544E1,1.3330712E1,2.6601978E2,5.8890938E1],"tree_param":{"num_deleted":"0","num_feature":"3","num_nodes":"9","size_leaf_vector":"1"}},{"base_weights":[2.1230016E-2,-3.190729E-2,1.4046836E-1,-1.1265967E-2,-9.957131E-2,2.4993145E-1,-6.963995E-3,4.9152143E-2,-2.9874668E-3,-2.8023163E-2,3.268991E-2,-4.3729734E-2,1.5215277E-2],"categories":[],"categories_nodes":[],"categories_segments":[],"categories_sizes":[],"default_left":[0,0,0,0,0,0,0,0,0,0,0,0,0],"id":87,"left_children":[1,3,5,7,-1,9,11,-1,-1,-1,-1,-1,-1],"loss_changes":[5.0752134E0,1.1018414E1,3.9861598E0,5.1026015E0,0E0,5.8744526E0,7.336538E0,0E0,0E0,0E0,0E0,0E0,0E0],"parents":[2147483647,0,0,1,1,2,2,3,3,5,5,6,6],"right_children":[2,4,6,8,-1,10,12,-1,-1,-1,-1,-1,-1],"split_conditions":[4E-1,2.233878E-1,9.789999E-1,-4E-1,-9.957131E-2,-1.22867756E-1,1.1408029E0,4.9152143E-2,-2.9874668E-3,-2.8023163E-2,3.268991E-2,-4.3729734E-2,1.5215277E-2],"split_indices":[1,1,2,1,0,2,2,0,0,0,0,0,0],"split_type":[0,0,0,0,0,0,0,0,0,0,0,0,0],"sum_hessian":[7.993042E2,5.534137E2,2.4589053E2,5.4280054E2,1.0613184E1,1.4071764E2,1.0517289E2,1.8465614E1,5.243349E2,1.7504372E1,1.2321327E2,2.7918545E1,7.725435E1],"tree_param":{"num_deleted":"0","num_feature":"3","num_nodes":"13","size_leaf_vector":"1"}},{"base_weights":[-2.7797675E-2,5.7678837E-2,-1.4076324E-1,-4.679073E-2,7.687837E-2,-2.0919143E-1,7.203734E-2,-2.7712023E-2,9.493217E-3,-1.3191211E-2,-2.878781E-2,2.0409052E-4,5.0344985E-2],"categories":[],"categories_nodes":[],"categories_segments":[],"categories_sizes":[],"default_left":[0,0,0,0,0,0,0,0,0,0,0,0,0],"id":88,"left_children":[1,3,5,-1,7,9,11,-1,-1,-1,-1,-1,-1],"loss_changes":[5.790548E0,3.4831762E0,3.7754107E0,0E0,2.1380997E0,1.151804E0,1.9188542E0,0E0,0E0,0E0,0E0,0E0,0E0],"parents":[2147483647,0,0,1,1,2,2,4,4,5,5,6,6],"right_children":[2,4,6,-1,8,10,12,-1,-1,-1,-1,-1,-1],"split_conditions":[-1.4113749E-2,-4E-1,6.363636E-1,-4.679073E-2,-3.7575758E-1,2.9099092E-1,9.709308E-1,-2.7712023E-2,9.493217E-3,-1.3191211E-2,-2.878781E-2,2.0409052E-4,5.0344985E-2],"split_indices":[1,1,0,0,0,2,1,0,0,0,0,0,0],"split_type":[0,0,0,0,0,0,0,0,0,0,0,0,0],"sum_hessian":[5.9784906E2,3.4061148E2,2.572376E2,1.1180311E1,3.2943115E2,1.9465976E2,6.2577854E1,1.5289293E1,3.1414188E2,9.955843E1,9.5101326E1,5.470649E1,7.8713665E0],"tree_param":{"num_deleted":"0","num_feature":"3","num_nodes":"13","size_leaf_vector":"1"}},{"base_weights":[1.30982E-2,7.398296E-2,-5.018692E-2,1.0864198E-1,-3.3012128E-1,4.6822126E-3,7.338595E-2,-5.316133E-2,2.2414777E-2],"categories":[],"categories_nodes":[],"categories_segments":[],"categories_sizes":[],"default_left":[0,0,0,0,0,0,0,0,0],"id":89,"left_children":[1,3,-1,5,7,-1,-1,-1,-1],"loss_changes":[1.2826852E1,5.1572514E0,0E0,1.3011396E1,3.372649E0,0E0,0E0,0E0,0E0],"parents":[2147483647,0,0,1,1,3,3,4,4],"right_children":[2,4,-1,6,8,-1,-1,-1,-1],"split_conditions":[1.21212125E-1,1.4E0,-5.018692E-2,1.0307792E0,3.577283E0,4.6822126E-3,7.338595E-2,-5.316133E-2,2.2414777E-2],"split_indices":[0,1,0,1,2,0,0,0,0],"split_type":[0,0,0,0,0,0,0,0,0],"sum_hessian":[4.0691788E2,3.646603E2,4.2257576E1,3.3652826E2,2.8132042E1,3.0722552E2,2.9302761E1,2.066179E1,7.470252E0],"tree_param":{"num_deleted":"0","num_feature":"3","num_nodes":"9","size_leaf_vector":"1"}},{"base_weights":[2.4599036E-2,-2.0028649E-5,3.813717E-1,1.8816268E-2,-3.667372E-1,4.8368847E-1,6.6550385E-4,-1.7313311E-3,2.7980065E-2,-1.1358168E-1,-1.6708754E-2,1.1968139E-2,5.0515205E-2,3.0081047E-2,-3.4364164E-2],"categories":[],"categories_nodes":[],"categories_segments":[],"categories_sizes":[],"default_left":[0,0,0,0,0,0,0,0,0,0,0,0,0,0,0],"id":90,"left_children":[1,3,5,7,9,11,13,-1,-1,-1,-1,-1,-1,-1,-1],"loss_changes":[7.1589475E0,5.280435E0,2.0490608E0,6.8607936E0,5.5446944E0,2.6351452E-1,1.3585635E0,0E0,0E0,0E0,0E0,0E0,0E0,0E0,0E0],"parents":[2147483647,0,0,1,1,2,2,3,3,4,4,5,5,6,6],"right_children":[2,4,6,8,10,12,14,-1,-1,-1,-1,-1,-1,-1,-1],"split_conditions":[1.4E0,1.0307792E0,6.060606E-3,6E-1,1.2E0,-4.31329E-1,1.5341004E0,-1.7313311E-3,2.7980065E-2,-1.1358168E-1,-1.6708754E-2,1.1968139E-2,5.0515205E-2,3.0081047E-2,-3.4364164E-2],"split_indices":[1,1,0,1,1,0,2,0,0,0,0,0,0,0,0],"split_type":[0,0,0,0,0,0,0,0,0,0,0,0,0,0,0],"sum_hessian":[8.140525E2,7.624403E2,5.161218E1,7.2609344E2,3.6346844E1,4.046618E1,1.1146E1,6.386193E2,8.747411E1,6.524493E0,2.982235E1,2.6193824E0,3.7846798E1,6.022393E0,5.1236067E0],"tree_param":{"num_deleted":"0","num_feature":"3","num_nodes":"15","size_leaf_vector":"1"}},{"base_weights":[-5.9700128E-2,-7.703373E-2,2.893024E-1,-2.903979E-2,-1.8394825E-1,1.6305901E-1,5.7838675E-2,-4.5888808E-2,-1.7617465E-3,-2.403826E-2,1.494271E-2,3.527626E-2,-6.4397536E-2],"categories":[],"categories_nodes":[],"categories_segments":[],"categories_sizes":[],"default_left":[0,0,0,0,0,0,0,0,0,0,0,0,0],"id":91,"left_children":[1,3,5,7,9,11,-1,-1,-1,-1,-1,-1,-1],"loss_changes":[3.6389146E0,2.921236E0,9.4571733E-1,1.9304636E0,3.3568854E0,3.4771535E0,0E0,0E0,0E0,0E0,0E0,0E0,0E0],"parents":[2147483647,0,0,1,1,2,2,3,3,4,4,5,5],"right_children":[2,4,6,8,10,12,-1,-1,-1,-1,-1,-1,-1],"split_conditions":[1.5818182E0,1.6414993E-1,2.6824078E-2,-4E-1,8.666667E-1,-1.7296606E-1,5.7838675E-2,-4.5888808E-2,-1.7617465E-3,-2.403826E-2,1.494271E-2,3.527626E-2,-6.4397536E-2],"split_indices":[0,2,2,1,0,2,0,0,0,0,0,0,0],"split_type":[0,0,0,0,0,0,0,0,0,0,0,0,0],"sum_hessian":[5.968421E2,5.6934424E2,2.7497843E1,3.9382693E2,1.7551732E2,2.0228216E1,7.269627E0,9.180204E0,3.8464673E2,1.5034552E2,2.5171797E1,1.6834051E1,3.3941655E0],"tree_param":{"num_deleted":"0","num_feature":"3","num_nodes":"13","size_leaf_vector":"1"}},{"base_weights":[-1.9145515E-2,3.425955E-2,-5.0042827E-2,-1.7175187E-1,9.3040474E-2,-2.9635787E-2,3.7486468E-2,1.1142482E-1,2.9934559E-3],"categories":[],"categories_nodes":[],"categories_segments":[],"categories_sizes":[],"default_left":[0,0,0,0,0,0,0,0,0],"id":92,"left_children":[1,3,-1,5,7,-1,-1,-1,-1],"loss_changes":[1.0399377E1,4.430183E0,0E0,5.646621E0,1.8285011E1,0E0,0E0,0E0,0E0],"parents":[2147483647,0,0,1,1,3,3,4,4],"right_children":[2,4,-1,6,8,-1,-1,-1,-1],"split_conditions":[1.21212125E-1,-1.6842379E-1,-5.0042827E-2,2.0106976E-1,0E0,-2.9635787E-2,3.7486468E-2,1.1142482E-1,2.9934559E-3],"split_indices":[0,1,0,2,1,0,0,0,0],"split_type":[0,0,0,0,0,0,0,0,0],"sum_hessian":[4.029318E2,3.6352267E2,3.940912E1,8.027131E1,2.8325137E2,6.574255E1,1.4528757E1,1.5515527E1,2.6773584E2],"tree_param":{"num_deleted":"0","num_feature":"3","num_nodes":"9","size_leaf_vector":"1"}},{"base_weights":[-1.7198835E-3,4.8779882E-2,-1.3128768E-2,-8.369282E-2,7.810409E-2,1.5245884E-5,-1.2995349E-2,9.320557E-3,-5.5762548E-2],"categories":[],"categories_nodes":[],"categories_segments":[],"categories_sizes":[],"default_left":[0,0,0,0,0,0,0,0,0],"id":93,"left_children":[1,-1,3,5,7,-1,-1,-1,-1],"loss_changes":[4.461082E0,0E0,5.0308323E0,1.7088072E0,3.324664E0,0E0,0E0,0E0,0E0],"parents":[2147483647,0,0,2,2,3,3,4,4],"right_children":[2,-1,4,6,8,-1,-1,-1,-1],"split_conditions":[-4E-1,4.8779882E-2,9.5910065E-2,-3.9517042E-1,1.4606061E0,1.5245884E-5,-1.2995349E-2,9.320557E-3,-5.5762548E-2],"split_indices":[1,0,2,1,0,0,0,0,0],"split_type":[0,0,0,0,0,0,0,0,0],"sum_hessian":[7.9663434E2,1.7192743E1,7.794416E2,4.3955243E2,3.3988916E2,1.566423E2,2.8291013E2,3.3283618E2,7.052988E0],"tree_param":{"num_deleted":"0","num_feature":"3","num_nodes":"9","size_leaf_vector":"1"}},{"base_weights":[-1.9619256E-2,3.7125103E-2,-1.5285249E-1,-4.6043992E-2,5.0266605E-2,-2.1266422E-1,3.557873E-1,3.8915665E-3,4.8680756E-2,-2.5870482E-2,-5.540062E-4,1.1088629E-2,4.845096E-2],"categories":[],"categories_nodes":[],"categories_segments":[],"categories_sizes":[],"default_left":[0,0,0,0,0,0,0,0,0,0,0,0,0],"id":94,"left_children":[1,3,5,-1,7,9,11,-1,-1,-1,-1,-1,-1],"loss_changes":[4.380105E0,2.6817358E0,5.3393974E0,0E0,1.9483948E0,1.4808745E0,5.31966E-1,0E0,0E0,0E0,0E0,0E0,0E0],"parents":[2147483647,0,0,1,1,2,2,4,4,5,5,6,6],"right_children":[2,4,6,-1,8,10,12,-1,-1,-1,-1,-1,-1],"split_conditions":[1.1230894E-1,-4E-1,8.666667E-1,-4.6043992E-2,2.2582715E-2,1.4E0,2.3185337E-1,3.8915665E-3,4.8680756E-2,-2.5870482E-2,-5.540062E-4,1.1088629E-2,4.845096E-2],"split_indices":[1,1,0,0,1,1,2,0,0,0,0,0,0],"split_type":[0,0,0,0,0,0,0,0,0,0,0,0,0],"sum_hessian":[5.7761035E2,4.0558997E2,1.720204E2,9.560801E0,3.9602917E2,1.5444131E2,1.7579092E1,3.8705414E2,8.975039E0,1.2615084E2,2.8290468E1,6.6977344E0,1.0881357E1],"tree_param":{"num_deleted":"0","num_feature":"3","num_nodes":"13","size_leaf_vector":"1"}},{"base_weights":[2.1996044E-2,7.6185234E-2,-4.990646E-2,1.05146885E-1,-3.536278E-1,4.478625E-3,6.1509587E-2,-5.1625498E-2,7.0807435E-2],"categories":[],"categories_nodes":[],"categories_segments":[],"categories_sizes":[],"default_left":[0,0,0,0,0,0,0,0,0],"id":95,"left_children":[1,3,-1,5,7,-1,-1,-1,-1],"loss_changes":[1.1413092E1,4.5904083E0,0E0,1.0544344E1,4.392025E0,0E0,0E0,0E0,0E0],"parents":[2147483647,0,0,1,1,3,3,4,4],"right_children":[2,4,-1,6,8,-1,-1,-1,-1],"split_conditions":[1.21212125E-1,1.6E0,-4.990646E-2,1.0307792E0,1.765917E1,4.478625E-3,6.1509587E-2,-5.1625498E-2,7.0807435E-2],"split_indices":[0,1,0,1,2,0,0,0,0],"split_type":[0,0,0,0,0,0,0,0,0],"sum_hessian":[4.0185913E2,3.647769E2,3.7082226E1,3.4245685E2,2.2320051E1,3.0718448E2,3.5272377E1,1.9800795E1,2.5192566E0],"tree_param":{"num_deleted":"0",